{"learner":{"attributes":{"scikit_learn":"{\"_estimator_type\": \"classifier\"}"},"feature_names":["gender","SeniorCitizen","Partner","Dependents","tenure","PhoneService","PaperlessBilling","MonthlyCharges","TotalCharges","MultipleLines_No phone service","MultipleLines_Yes","InternetService_Fiber optic","InternetService_No","OnlineSecurity_No internet service","OnlineSecurity_Yes","OnlineBackup_No internet service","OnlineBackup_Yes","DeviceProtection_No internet service","DeviceProtection_Yes","TechSupport_No internet service","TechSupport_Yes","StreamingTV_No internet service","StreamingTV_Yes","StreamingMovies_No internet service","StreamingMovies_Yes","Contract_One year","Contract_Two year","PaymentMethod_Credit card (automatic)","PaymentMethod_Electronic check","PaymentMethod_Mailed check"],"feature_types":["int","int","int","int","int","int","int","float","float","i","i","i","i","i","i","i","i","i","i","i","i","i","i","i","i","i","i","i","i","i"],"gradient_booster":{"model":{"gbtree_model_param":{"num_parallel_tree":"1","num_trees":"200"},"iteration_indptr":[0,1,2,3,4,5,6,7,8,9,10,11,12,13,14,15,16,17,18,19,20,21,22,23,24,25,26,27,28,29,30,31,32,33,34,35,36,37,38,39,40,41,42,43,44,45,46,47,48,49,50,51,52,53,54,55,56,57,58,59,60,61,62,63,64,65,66,67,68,69,70,71,72,73,74,75,76,77,78,79,80,81,82,83,84,85,86,87,88,89,90,91,92,93,94,95,96,97,98,99,100,101,102,103,104,105,106,107,108,109,110,111,112,113,114,115,116,117,118,119,120,121,122,123,124,125,126,127,128,129,130,131,132,133,134,135,136,137,138,139,140,141,142,143,144,145,146,147,148,149,150,151,152,153,154,155,156,157,158,159,160,161,162,163,164,165,166,167,168,169,170,171,172,173,174,175,176,177,178,179,180,181,182,183,184,185,186,187,188,189,190,191,192,193,194,195,196,197,198,199,200],"tree_info":[0,0,0,0,0,0,0,0,0,0,0,0,0,0,0,0,0,0,0,0,0,0,0,0,0,0,0,0,0,0,0,0,0,0,0,0,0,0,0,0,0,0,0,0,0,0,0,0,0,0,0,0,0,0,0,0,0,0,0,0,0,0,0,0,0,0,0,0,0,0,0,0,0,0,0,0,0,0,0,0,0,0,0,0,0,0,0,0,0,0,0,0,0,0,0,0,0,0,0,0,0,0,0,0,0,0,0,0,0,0,0,0,0,0,0,0,0,0,0,0,0,0,0,0,0,0,0,0,0,0,0,0,0,0,0,0,0,0,0,0,0,0,0,0,0,0,0,0,0,0,0,0,0,0,0,0,0,0,0,0,0,0,0,0,0,0,0,0,0,0,0,0,0,0,0,0,0,0,0,0,0,0,0,0,0,0,0,0,0,0,0,0,0,0,0,0,0,0,0,0],"trees":[{"base_weights":[-7.7804714E-2,8.7969464E-1,-6.1479306E-1,4.9728453E-2,1.9902573E0,-1.092439E0,-2.929469E-2,7.1676046E-1,-4.3367606E-1,2.7772145E0,1.7487401E0,-8.9885944E-1,-3.9289913E-1,4.1675463E-1,-6.944209E-1,1.2734807E0,-9.755476E-2,-7.1771756E-2,-9.5641303E-1,2.8762863E0,8.568214E-2,1.904875E0,6.4084363E-1,-4.2793936E-1,-1.0278953E0,-6.135048E-2,8.926061E-1,-3.6027706E-1,-1.0538975E0,1.3911232E0,-8.406815E-2,3.4643537E-1,-8.5264385E-1,2.2763619E-1,-6.8139523E-1,-1.0113081E0,-5.408656E-1,8.736184E-1,2.3750494E-1,7.3436093E-1,2.0866895E0,5.272716E-2,1.6683512E0,-8.965223E-2,-1.0665418E0,-3.678258E-1,-9.021547E-1,1.7934133E-1,-6.9177103E-1,2.58593E-1,1.1659341E0,-7.0825964E-1,-5.4213986E-2,-8.844412E-1,-3.785392E-1,2.9851902E-1,4.9780467E-1,1.0590771E-1,-2.4471746E-1,8.177838E-3,2.8838426E-1,-1.1118775E-1,-3.188045E-1,-6.967241E-2,2.7044848E-1,8.053515E-2,-2.760789E-1,-3.0729234E-1,-6.080178E-2,-2.2565383E-1,4.959205E-2,3.3701766E-1,6.818978E-2,7.130115E-1,5.081618E-1,1.2046995E-1,-2.3967963E-1,6.4989704E-1,-9.340008E-2,-7.178538E-2,2.0952615E-1,8.8351585E-2,-3.5217267E-1,-6.146305E-2,-2.942805E-1,1.2419554E-1,-1.07631214E-1,-2.95663E-1,-3.5173874E-2,2.254358E-1,-9.3153864E-2,3.9083186E-1,5.859917E-2,-2.6178044E-1,-1.2521988E-1,7.337891E-2,-1.3134375E-1,-3.3053493E-1,-1.6626474E-1],"categories":[],"categories_nodes":[],"categories_segments":[],"categories_sizes":[],"default_left":[0,0,0,0,0,0,0,0,0,0,0,0,0,0,0,0,0,0,0,0,0,0,0,0,0,0,0,0,0,0,0,0,0,0,0,0,0,0,0,0,0,0,0,0,0,0,0,0,0,0,0,0,0,0,0,0,0,0,0,0,0,0,0,0,0,0,0,0,0,0,0,0,0,0,0,0,0,0,0,0,0,0,0,0,0,0,0,0,0,0,0,0,0,0,0,0,0,0,0],"id":0,"left_children":[1,3,5,7,9,11,13,15,17,19,21,23,-1,25,27,29,31,33,35,37,-1,39,41,43,45,47,49,51,53,55,57,59,61,63,65,67,69,-1,-1,71,73,75,77,79,81,-1,83,85,87,89,91,93,95,97,-1,-1,-1,-1,-1,-1,-1,-1,-1,-1,-1,-1,-1,-1,-1,-1,-1,-1,-1,-1,-1,-1,-1,-1,-1,-1,-1,-1,-1,-1,-1,-1,-1,-1,-1,-1,-1,-1,-1,-1,-1,-1,-1,-1,-1],"loss_changes":[5.8605853E2,3.7742892E2,2.0417227E2,7.622486E1,2.843396E1,1.5731323E1,9.792138E1,4.5143047E1,2.5873348E1,8.912079E0,2.2429901E1,1.26740265E1,0E0,4.501173E1,1.5532894E1,9.547813E0,1.412515E1,1.5142418E1,7.308655E-1,5.145569E-1,0E0,2.386264E1,1.1028183E1,1.0301745E1,3.0975647E0,1.5222772E1,1.6872093E1,7.435726E0,1.1140442E0,4.127884E0,2.0955675E0,5.2112217E0,1.1818218E0,1.7506111E1,6.4399767E0,3.00457E-1,1.4205415E0,0E0,0E0,3.2137537E0,7.678833E0,4.1033106E0,7.2435875E0,4.005951E0,2.767828E0,0E0,5.6761475E0,9.341354E0,4.5595894E0,8.967297E0,8.904915E0,1.2015495E0,4.5109158E0,2.1323338E0,0E0,0E0,0E0,0E0,0E0,0E0,0E0,0E0,0E0,0E0,0E0,0E0,0E0,0E0,0E0,0E0,0E0,0E0,0E0,0E0,0E0,0E0,0E0,0E0,0E0,0E0,0E0,0E0,0E0,0E0,0E0,0E0,0E0,0E0,0E0,0E0,0E0,0E0,0E0,0E0,0E0,0E0,0E0,0E0,0E0],"parents":[2147483647,0,0,1,1,2,2,3,3,4,4,5,5,6,6,7,7,8,8,9,9,10,10,11,11,13,13,14,14,15,15,16,16,17,17,18,18,19,19,21,21,22,22,23,23,24,24,25,25,26,26,27,27,28,28,29,29,30,30,31,31,32,32,33,33,34,34,35,35,36,36,39,39,40,40,41,41,42,42,43,43,44,44,46,46,47,47,48,48,49,49,50,50,51,51,52,52,53,53],"right_children":[2,4,6,8,10,12,14,16,18,20,22,24,-1,26,28,30,32,34,36,38,-1,40,42,44,46,48,50,52,54,56,58,60,62,64,66,68,70,-1,-1,72,74,76,78,80,82,-1,84,86,88,90,92,94,96,98,-1,-1,-1,-1,-1,-1,-1,-1,-1,-1,-1,-1,-1,-1,-1,-1,-1,-1,-1,-1,-1,-1,-1,-1,-1,-1,-1,-1,-1,-1,-1,-1,-1,-1,-1,-1,-1,-1,-1,-1,-1,-1,-1,-1,-1],"split_conditions":[1.7E1,1E0,1E0,4E0,2E0,1E0,5.6E1,1E0,1E0,1E0,1E0,1E0,-3.9289913E-1,1E0,1E0,6.02E1,2.47E1,1E0,1.5E1,1E0,8.568214E-2,7.365E1,9.395E1,1E0,4.825E1,1E0,1E0,9.99E1,7.2E1,1E0,1.645E2,1E0,1.99E1,1E0,3.13E2,2.555E1,1E0,8.736184E-1,2.3750494E-1,3.3355E2,9E0,9.213E2,1.4931E3,5.14E1,3.36E1,-3.678258E-1,1.21545E3,1E0,4.74785E3,2.5702E3,1E0,1E0,1E0,1.0575E2,-3.785392E-1,2.9851902E-1,4.9780467E-1,1.0590771E-1,-2.4471746E-1,8.177838E-3,2.8838426E-1,-1.1118775E-1,-3.188045E-1,-6.967241E-2,2.7044848E-1,8.053515E-2,-2.760789E-1,-3.0729234E-1,-6.080178E-2,-2.2565383E-1,4.959205E-2,3.3701766E-1,6.818978E-2,7.130115E-1,5.081618E-1,1.2046995E-1,-2.3967963E-1,6.4989704E-1,-9.340008E-2,-7.178538E-2,2.0952615E-1,8.8351585E-2,-3.5217267E-1,-6.146305E-2,-2.942805E-1,1.2419554E-1,-1.07631214E-1,-2.95663E-1,-3.5173874E-2,2.254358E-1,-9.3153864E-2,3.9083186E-1,5.859917E-2,-2.6178044E-1,-1.2521988E-1,7.337891E-2,-1.3134375E-1,-3.3053493E-1,-1.6626474E-1],"split_indices":[4,11,11,4,4,26,4,12,12,20,14,5,0,28,26,7,8,16,4,27,0,7,7,20,7,25,10,7,4,6,8,6,7,28,8,7,6,0,0,8,4,8,8,7,7,0,8,20,8,8,25,28,14,7,0,0,0,0,0,0,0,0,0,0,0,0,0,0,0,0,0,0,0,0,0,0,0,0,0,0,0,0,0,0,0,0,0,0,0,0,0,0,0,0,0,0,0,0,0],"split_type":[0,0,0,0,0,0,0,0,0,0,0,0,0,0,0,0,0,0,0,0,0,0,0,0,0,0,0,0,0,0,0,0,0,0,0,0,0,0,0,0,0,0,0,0,0,0,0,0,0,0,0,0,0,0,0,0,0,0,0,0,0,0,0,0,0,0,0,0,0,0,0,0,0,0,0,0,0,0,0,0,0,0,0,0,0,0,0,0,0,0,0,0,0,0,0,0,0,0,0],"sum_hessian":[1.1377717E3,4.0858646E2,7.2918524E2,2.3443153E2,1.7415492E2,4.0110245E2,3.280828E2,9.8303474E1,1.3612807E2,3.84314E1,1.3572353E2,2.148113E2,1.8629115E2,1.9660695E2,1.3147585E2,5.805164E1,4.0251835E1,8.111048E1,5.5017582E1,3.6813236E1,1.6181642E0,1.18328255E2,1.7395266E1,4.7129032E1,1.6768227E2,9.8505745E1,9.8101204E1,6.917652E1,6.229932E1,5.3399418E1,4.652222E0,2.5688356E1,1.45634775E1,5.481531E1,2.6295168E1,4.7331303E1,7.68628E0,3.5801884E1,1.0113527E0,1.6586184E1,1.0174207E2,1.173169E1,5.6635747E0,3.1554201E1,1.557483E1,6.169251E1,1.0598975E2,7.180604E1,2.6699709E1,3.0138308E1,6.79629E1,3.1756472E1,3.7420048E1,3.7217777E1,2.5081545E1,2.346338E1,2.9936037E1,3.2363284E0,1.4158937E0,1.7597536E1,8.090821E0,5.2590337E0,9.304444E0,3.2970097E1,2.1845217E1,5.2590337E0,2.1036135E1,4.631995E1,1.0113527E0,5.865845E0,1.8204347E0,8.697633E0,7.8885503E0,5.5624393E1,4.611768E1,8.697633E0,3.0340579E0,4.4499516E0,1.2136232E0,2.710425E1,4.4499516E0,1.0113527E0,1.45634775E1,1.1124879E1,9.4864876E1,5.016309E1,2.1642946E1,1.7192995E1,9.506715E0,1.5979371E1,1.41589365E1,5.9265263E1,8.697633E0,1.901343E1,1.2743043E1,2.1238405E1,1.6181643E1,2.1036135E1,1.6181643E1],"tree_param":{"num_deleted":"0","num_feature":"30","num_nodes":"99","size_leaf_vector":"1"}},{"base_weights":[-8.413433E-2,1.844457E-1,-1.1012607E0,4.8530525E-1,-7.3546576E-1,-3.5596988E-1,-8.4176236E-1,2.7823351E-2,8.11702E-1,-1.0448457E0,-3.6237237E-1,-6.9685197E-1,-3.465876E-1,4.6116707E-1,-3.3949384E-1,1.1968585E0,4.5864576E-1,-3.3872488E-1,-6.0043216E-1,-5.2577585E-1,-5.5885345E-2,-8.637144E-1,-3.7258506E-1,7.195793E-1,-3.9674405E-2,1.1803672E-1,-4.95318E-1,1.016425E0,1.439727E0,1.4176041E-1,6.787721E-1,-8.907358E-1,1.1012559E-1,-3.323363E-1,-7.5602233E-1,2.0597559E-1,-7.498497E-1,-4.0556368E-1,-1.0024538E0,-3.2477975E-2,-7.736512E-1,1.7526062E-1,4.801749E-1,9.91671E-2,-1.64912E-1,9.479431E-2,-1.3966633E-1,-1.8805464E-1,-5.1464353E-2,4.4220677E-1,2.3251995E-1,3.2797164E-1,5.148031E-1,8.445663E-2,-1.4490016E-1,2.8383315E-1,1.2734936E-1,-3.369609E-1,-1.7923932E-1,-9.94244E-2,2.6455057E-1,1.23995245E-1,-1.416382E-1,-2.906374E-1,-6.73888E-2,-2.6824722E-2,2.2541498E-1,2.0156974E-1,-3.028912E-1,-1.967929E-1,1.3934869E-1,-3.3253193E-1,-1.5711272E-1,-2.481371E-1,5.2915696E-2,-2.8914097E-1,8.1760396E-4],"categories":[],"categories_nodes":[],"categories_segments":[],"categories_sizes":[],"default_left":[0,0,0,0,0,0,0,0,0,0,0,0,0,0,0,0,0,0,0,0,0,0,0,0,0,0,0,0,0,0,0,0,0,0,0,0,0,0,0,0,0,0,0,0,0,0,0,0,0,0,0,0,0,0,0,0,0,0,0,0,0,0,0,0,0,0,0,0,0,0,0,0,0,0,0,0,0],"id":1,"left_children":[1,3,5,7,9,-1,11,13,15,17,19,21,-1,23,25,27,29,-1,31,33,35,37,39,41,43,45,47,49,51,53,55,57,59,61,63,65,67,69,71,73,75,-1,-1,-1,-1,-1,-1,-1,-1,-1,-1,-1,-1,-1,-1,-1,-1,-1,-1,-1,-1,-1,-1,-1,-1,-1,-1,-1,-1,-1,-1,-1,-1,-1,-1,-1,-1],"loss_changes":[3.023402E2,2.4275175E2,4.118866E0,9.8614746E1,2.4581787E1,0E0,1.9498901E0,4.4103054E1,5.1869934E1,3.7277222E0,4.9566183E0,2.0583973E0,0E0,1.647635E1,1.0752956E1,6.5884094E0,1.4046185E1,0E0,4.4068336E0,2.6356773E0,6.6492453E0,1.3913746E0,2.253433E0,9.069588E0,8.528216E0,4.6426973E0,4.665821E0,1.0876312E1,5.3915405E0,7.50305E0,7.71307E0,3.4743786E-1,2.6599374E0,4.0528073E0,3.0396767E0,4.3741426E0,4.374489E0,2.1030474E0,4.8664284E-1,1.8193799E0,1.1277704E0,0E0,0E0,0E0,0E0,0E0,0E0,0E0,0E0,0E0,0E0,0E0,0E0,0E0,0E0,0E0,0E0,0E0,0E0,0E0,0E0,0E0,0E0,0E0,0E0,0E0,0E0,0E0,0E0,0E0,0E0,0E0,0E0,0E0,0E0,0E0,0E0],"parents":[2147483647,0,0,1,1,2,2,3,3,4,4,6,6,7,7,8,8,9,9,10,10,11,11,13,13,14,14,15,15,16,16,18,18,19,19,20,20,21,21,22,22,23,23,24,24,25,25,26,26,27,27,28,28,29,29,30,30,31,31,32,32,33,33,34,34,35,35,36,36,37,37,38,38,39,39,40,40],"right_children":[2,4,6,8,10,-1,12,14,16,18,20,22,-1,24,26,28,30,-1,32,34,36,38,40,42,44,46,48,50,52,54,56,58,60,62,64,66,68,70,72,74,76,-1,-1,-1,-1,-1,-1,-1,-1,-1,-1,-1,-1,-1,-1,-1,-1,-1,-1,-1,-1,-1,-1,-1,-1,-1,-1,-1,-1,-1,-1,-1,-1,-1,-1,-1,-1],"split_conditions":[1E0,1E0,9.185E1,1E0,1E0,-3.5596988E-1,7.73265E3,6E0,1.16075E3,1E0,1.0245E2,1.0575E2,-3.465876E-1,1E0,1E0,1E0,1E0,-3.3872488E-1,8.24E1,1E0,1E0,9.65E1,1.0995E2,1E0,2.47E1,1E0,1E0,1.22E2,8.425E1,5E1,3.0672E3,1E0,1E0,2.6E1,1E0,1E0,4.4E1,9.52E1,7.2348E3,5.1961E3,7.5119E3,1.7526062E-1,4.801749E-1,9.91671E-2,-1.64912E-1,9.479431E-2,-1.3966633E-1,-1.8805464E-1,-5.1464353E-2,4.4220677E-1,2.3251995E-1,3.2797164E-1,5.148031E-1,8.445663E-2,-1.4490016E-1,2.8383315E-1,1.2734936E-1,-3.369609E-1,-1.7923932E-1,-9.94244E-2,2.6455057E-1,1.23995245E-1,-1.416382E-1,-2.906374E-1,-6.73888E-2,-2.6824722E-2,2.2541498E-1,2.0156974E-1,-3.028912E-1,-1.967929E-1,1.3934869E-1,-3.3253193E-1,-1.5711272E-1,-2.481371E-1,5.2915696E-2,-2.8914097E-1,8.1760396E-4],"split_indices":[26,25,7,11,24,0,8,4,8,28,7,7,0,12,5,10,22,0,7,14,3,7,7,1,8,3,28,8,7,4,8,0,3,4,27,28,4,7,8,8,8,0,0,0,0,0,0,0,0,0,0,0,0,0,0,0,0,0,0,0,0,0,0,0,0,0,0,0,0,0,0,0,0,0,0,0,0],"split_type":[0,0,0,0,0,0,0,0,0,0,0,0,0,0,0,0,0,0,0,0,0,0,0,0,0,0,0,0,0,0,0,0,0,0,0,0,0,0,0,0,0,0,0,0,0,0,0,0,0,0,0,0,0,0,0,0,0,0,0,0,0,0,0,0,0,0,0,0,0,0,0,0,0,0,0,0,0],"sum_hessian":[1.1050007E3,8.748172E2,2.3018356E2,6.5957416E2,2.1524307E2,1.705467E2,5.963685E1,2.7508987E2,3.8448425E2,1.1668445E2,9.8558624E1,4.2989918E1,1.6646929E1,1.26085075E2,1.490048E2,1.8273969E2,2.0174458E2,9.679637E1,1.9888077E1,6.3818382E1,3.4740246E1,2.7285604E1,1.5704315E1,8.288389E1,4.3201183E1,3.791662E1,1.1108818E2,1.0782136E2,7.491832E1,8.337097E1,1.1837362E2,1.3939441E1,5.948636E0,3.6009075E1,2.7809307E1,2.5733238E1,9.007007E0,7.2540846E0,2.0031519E1,9.082914E0,6.621401E0,7.328573E1,9.598157E0,2.5235023E1,1.7966162E1,2.8655659E1,9.26096E0,7.833053E1,3.2757652E1,3.546853E1,7.235283E1,3.5435463E1,3.948286E1,6.857896E1,1.4792015E1,5.63781E1,6.1995518E1,6.197201E0,7.7422404E0,4.1466436E0,1.8019924E0,5.376077E0,3.0632996E1,1.9270365E1,8.538942E0,1.7234913E1,8.498326E0,1.1464496E0,7.8605566E0,5.823945E0,1.4301395E0,1.5323792E1,4.7077265E0,1.2743583E0,7.8085566E0,5.124809E0,1.4965922E0],"tree_param":{"num_deleted":"0","num_feature":"30","num_nodes":"77","size_leaf_vector":"1"}},{"base_weights":[-7.7068456E-2,1.2460063E-1,-9.8928773E-1,3.347721E-1,-6.095903E-1,-1.0856862E0,-7.216597E-1,1.5128541E-2,5.52972E-1,-9.188821E-1,-2.8071666E-1,-3.3277988E-1,-7.0739985E-1,-5.9811E-1,-3.297379E-1,2.6346436E-1,-3.25831E-1,9.0725464E-1,3.6045846E-1,-1.0083674E0,-4.9469972E-1,-6.521231E-1,-1.5881231E-1,1.0558042E-1,-2.7971837E-1,-7.4162316E-1,-3.732759E-1,-1.3250162E-1,4.231505E-1,-4.2076468E-1,2.9336956E-1,6.684631E-1,1.0457188E0,-9.21526E-2,4.7549868E-1,-8.416844E-1,-3.2580584E-1,-7.7020466E-1,9.579826E-2,-8.585112E-1,4.9861875E-1,-5.988703E-3,-4.399624E-1,-5.5830214E-2,1.09382205E-1,-3.201423E-1,-8.8084614E-1,2.229925E-1,-5.370394E-1,4.9558587E-2,-1.53101E-1,1.6476385E-1,-2.292367E-2,-1.691075E-1,-3.7047595E-2,2.1196805E-1,-4.189612E-2,3.1379354E-1,9.523079E-2,3.3551544E-1,1.044731E-1,-5.3828374E-2,2.448304E-1,1.8917222E-1,6.408009E-2,-2.694583E-1,1.1793382E-1,-2.7069664E-1,-1.0314261E-1,-2.31397E-1,1.1472262E-1,-1.6745288E-2,-2.7727288E-1,2.8891718E-1,-8.492244E-2,-6.7808434E-2,1.13043375E-1,-1.7406005E-1,1.3030742E-1,3.7863813E-2,-2.6779678E-1,-2.9621142E-1,-1.3518435E-1,1.9854026E-1,-7.187747E-2,-2.4337389E-2,-1.9668563E-1],"categories":[],"categories_nodes":[],"categories_segments":[],"categories_sizes":[],"default_left":[0,0,0,0,0,0,0,0,0,0,0,0,0,0,0,0,0,0,0,0,0,0,0,0,0,0,0,0,0,0,0,0,0,0,0,0,0,0,0,0,0,0,0,0,0,0,0,0,0,0,0,0,0,0,0,0,0,0,0,0,0,0,0,0,0,0,0,0,0,0,0,0,0,0,0,0,0,0,0,0,0,0,0,0,0,0,0],"id":2,"left_children":[1,3,5,7,9,11,13,15,17,19,21,-1,23,25,-1,27,29,31,33,35,37,39,41,43,-1,45,47,49,51,53,55,57,59,61,63,65,-1,67,69,71,73,75,77,-1,-1,79,81,83,85,-1,-1,-1,-1,-1,-1,-1,-1,-1,-1,-1,-1,-1,-1,-1,-1,-1,-1,-1,-1,-1,-1,-1,-1,-1,-1,-1,-1,-1,-1,-1,-1,-1,-1,-1,-1,-1,-1],"loss_changes":[1.9243503E2,1.3244258E2,4.1021423E0,4.6505936E1,1.9178368E1,4.3954468E-1,1.8204136E0,2.3081942E1,2.670362E1,3.2222748E0,4.1545854E0,0E0,2.076364E0,1.085556E0,0E0,1.0026918E1,6.877472E0,3.8927383E0,1.3500614E1,1.2125397E-1,3.171486E0,5.8712835E0,3.096518E0,3.1281242E-1,0E0,1.1708488E0,1.9227066E0,5.2673535E0,7.133791E0,4.180687E0,2.9369297E0,6.7899227E0,3.975937E0,4.364603E0,8.241138E0,2.4371395E0,0E0,4.2742062E-1,2.0214705E0,9.931526E-1,1.7676593E0,4.1066213E0,3.3647428E0,0E0,0E0,2.0851078E0,3.8187027E-1,1.1095533E0,7.4579334E-1,0E0,0E0,0E0,0E0,0E0,0E0,0E0,0E0,0E0,0E0,0E0,0E0,0E0,0E0,0E0,0E0,0E0,0E0,0E0,0E0,0E0,0E0,0E0,0E0,0E0,0E0,0E0,0E0,0E0,0E0,0E0,0E0,0E0,0E0,0E0,0E0,0E0,0E0],"parents":[2147483647,0,0,1,1,2,2,3,3,4,4,5,5,6,6,7,7,8,8,9,9,10,10,12,12,13,13,15,15,16,16,17,17,18,18,19,19,20,20,21,21,22,22,23,23,25,25,26,26,27,27,28,28,29,29,30,30,31,31,32,32,33,33,34,34,35,35,37,37,38,38,39,39,40,40,41,41,42,42,45,45,46,46,47,47,48,48],"right_children":[2,4,6,8,10,12,14,16,18,20,22,-1,24,26,-1,28,30,32,34,36,38,40,42,44,-1,46,48,50,52,54,56,58,60,62,64,66,-1,68,70,72,74,76,78,-1,-1,80,82,84,86,-1,-1,-1,-1,-1,-1,-1,-1,-1,-1,-1,-1,-1,-1,-1,-1,-1,-1,-1,-1,-1,-1,-1,-1,-1,-1,-1,-1,-1,-1,-1,-1,-1,-1,-1,-1,-1,-1],"split_conditions":[1E0,1E0,9.185E1,1E0,1E0,1E0,7.8812E3,1E1,9E0,1E0,1E0,-3.3277988E-1,1E0,1.0575E2,-3.297379E-1,2.085E1,1E0,7.565E1,1E0,2.6E1,8.24E1,6.5E1,6E1,6.8E1,-2.7971837E-1,9.65E1,1E0,3.59E1,5.52E1,1E0,4.885E1,7.545E1,1E0,1.044E2,3.0672E3,6.67E1,-3.2580584E-1,1E0,3.2E1,9.0855E2,6.9E1,1.013E2,7.6232E3,-5.5830214E-2,1.09382205E-1,6.60555E3,7.2348E3,1.0845E2,6.1712E3,4.9558587E-2,-1.53101E-1,1.6476385E-1,-2.292367E-2,-1.691075E-1,-3.7047595E-2,2.1196805E-1,-4.189612E-2,3.1379354E-1,9.523079E-2,3.3551544E-1,1.044731E-1,-5.3828374E-2,2.448304E-1,1.8917222E-1,6.408009E-2,-2.694583E-1,1.1793382E-1,-2.7069664E-1,-1.0314261E-1,-2.31397E-1,1.1472262E-1,-1.6745288E-2,-2.7727288E-1,2.8891718E-1,-8.492244E-2,-6.7808434E-2,1.13043375E-1,-1.7406005E-1,1.3030742E-1,3.7863813E-2,-2.6779678E-1,-2.9621142E-1,-1.3518435E-1,1.9854026E-1,-7.187747E-2,-2.4337389E-2,-1.9668563E-1],"split_indices":[26,25,7,11,24,28,8,4,4,28,22,0,5,7,0,7,1,7,6,4,7,4,4,4,0,7,16,8,7,28,7,8,14,7,8,7,0,14,4,8,4,7,8,0,0,8,8,7,8,0,0,0,0,0,0,0,0,0,0,0,0,0,0,0,0,0,0,0,0,0,0,0,0,0,0,0,0,0,0,0,0,0,0,0,0,0,0],"split_type":[0,0,0,0,0,0,0,0,0,0,0,0,0,0,0,0,0,0,0,0,0,0,0,0,0,0,0,0,0,0,0,0,0,0,0,0,0,0,0,0,0,0,0,0,0,0,0,0,0,0,0,0,0,0,0,0,0,0,0,0,0,0,0,0,0,0,0,0,0,0,0,0,0,0,0,0,0,0,0,0,0,0,0,0,0,0,0],"sum_hessian":[1.0443633E3,8.559888E2,1.8837451E2,6.6590814E2,1.9008064E2,1.362435E2,5.2131016E1,2.705888E2,3.9531934E2,9.703205E1,9.304859E1,1.2643023E2,9.813265E0,4.12228E1,1.0908215E1,1.5669109E2,1.1389773E2,1.3787512E2,2.574442E2,7.899096E1,1.8041088E1,2.1918856E1,7.112974E1,2.2421992E0,7.5710654E0,2.375884E1,1.7463963E1,4.5079605E1,1.1161148E2,9.903456E1,1.4863166E1,5.274323E1,8.513189E1,5.2213966E1,2.0523026E2,2.8866693E1,5.0124268E1,1.2094092E1,5.946996E0,1.8800835E1,3.118021E0,4.6743084E1,2.4386652E1,1.1870466E0,1.0551525E0,6.718595E0,1.7040245E1,3.6850169E0,1.3778945E1,2.5528465E1,1.9551142E1,8.904261E1,2.2568874E1,6.627414E1,3.276042E1,7.2825093E0,7.5806565E0,2.4458912E1,2.8284315E1,7.655281E1,8.579078E0,4.836861E1,3.845355E0,1.2801956E2,7.721069E1,2.7864103E1,1.0025897E0,8.381082E0,3.7130108E0,1.0572284E0,4.8897676E0,1.5630141E0,1.723782E1,1.8103805E0,1.3076406E0,2.9941679E1,1.6801407E1,2.1305695E1,3.080956E0,4.2132893E0,2.5053058E0,1.262045E1,4.4197946E0,1.6700977E0,2.0149193E0,3.1916811E0,1.0587264E1],"tree_param":{"num_deleted":"0","num_feature":"30","num_nodes":"87","size_leaf_vector":"1"}},{"base_weights":[-6.85345E-2,8.564453E-2,-8.9582974E-1,2.375071E-1,-5.035706E-1,-1.0033883E0,-6.0327315E-1,2.7669268E-2,4.3327E-1,-8.139082E-1,-2.1474542E-1,-1.0292463E0,-6.2772334E-1,-4.2391393E-1,-9.4394076E-1,1.7773792E-1,-1.9256605E-1,5.4751873E-1,1.72923E-1,-9.093995E-1,-4.1450801E-1,-3.8548037E-1,-2.8496072E-2,-3.1555665E-1,-6.5028614E-1,8.77237E-2,-2.572804E-1,2.111855E-1,-5.052402E-1,-4.5127872E-1,-3.1573915E-1,5.352031E-2,7.7349424E-1,-3.204297E-1,4.4420475E-1,2.7928585E-1,6.346277E-1,-4.6942547E-1,3.0133775E-1,-7.275742E-1,-2.9985568E-1,-6.622206E-1,4.5665197E-2,-8.7045664E-1,-1.8087235E-1,1.9960089E-1,-3.5560188E-1,-2.706303E-1,-2.3637207E-1,1.0383513E-1,-5.8685046E-2,2.3740749E-1,-1.2638623E-1,-8.1397235E-1,-2.6343384E-1,9.3476705E-2,-2.4515341E-1,-6.8442407E-3,1.6649346E-1,2.8392777E-1,2.6708089E-2,-4.9963515E-2,-2.6196653E-1,2.5736213E-1,-5.570816E-2,1.277228E-1,-6.84527E-2,3.0130032E-1,1.6534512E-1,-1.9251657E-1,5.1012237E-2,1.3921921E-1,-6.293018E-2,-2.536756E-1,3.07811E-2,-2.874176E-1,-1.0376142E-1,9.149478E-2,-2.1179914E-1,-9.154569E-2,-3.0277407E-1,-9.722167E-3,-2.2023307E-1,-1.306905E-1,1.2709951E-1,-3.123934E-1,-1.8707138E-2,1.2656783E-1,-1.62772E-1,-2.81848E-1,-6.646017E-2,5.2798677E-2,-1.9544135E-1],"categories":[],"categories_nodes":[],"categories_segments":[],"categories_sizes":[],"default_left":[0,0,0,0,0,0,0,0,0,0,0,0,0,0,0,0,0,0,0,0,0,0,0,0,0,0,0,0,0,0,0,0,0,0,0,0,0,0,0,0,0,0,0,0,0,0,0,0,0,0,0,0,0,0,0,0,0,0,0,0,0,0,0,0,0,0,0,0,0,0,0,0,0,0,0,0,0,0,0,0,0,0,0,0,0,0,0,0,0,0,0,0,0],"id":3,"left_children":[1,3,5,7,9,11,13,15,17,19,21,23,25,27,29,31,33,35,37,39,41,43,45,-1,47,49,-1,51,53,55,-1,57,59,61,63,65,67,69,71,73,-1,75,77,79,81,83,85,-1,87,-1,-1,-1,-1,89,91,-1,-1,-1,-1,-1,-1,-1,-1,-1,-1,-1,-1,-1,-1,-1,-1,-1,-1,-1,-1,-1,-1,-1,-1,-1,-1,-1,-1,-1,-1,-1,-1,-1,-1,-1,-1,-1,-1],"loss_changes":[1.2556506E2,7.4404655E1,4.260582E0,2.7130405E1,1.5102665E1,4.3759918E-1,2.2930164E0,1.0609576E1,1.00709915E1,2.7429771E0,2.839507E0,1.968689E-1,1.6783988E0,1.6918278E0,2.9425144E-1,1.4080187E1,1.0739372E1,5.3620224E0,8.860196E0,3.408432E-1,2.0389745E0,4.47542E0,3.3503199E0,0E0,6.631148E-1,3.0766982E-1,0E0,1.8705199E0,1.8385878E0,1.4682165E0,0E0,6.0979805E0,3.803896E0,9.124188E0,5.9396434E0,4.5491114E0,4.945122E0,2.0924356E0,7.4743156E0,2.5630503E0,0E0,7.467642E-1,1.5996284E0,7.5832844E-1,2.7768579E0,3.9614515E0,3.6382818E0,0E0,1.1430614E0,0E0,0E0,0E0,0E0,6.545062E-1,2.9964209E0,0E0,0E0,0E0,0E0,0E0,0E0,0E0,0E0,0E0,0E0,0E0,0E0,0E0,0E0,0E0,0E0,0E0,0E0,0E0,0E0,0E0,0E0,0E0,0E0,0E0,0E0,0E0,0E0,0E0,0E0,0E0,0E0,0E0,0E0,0E0,0E0,0E0,0E0],"parents":[2147483647,0,0,1,1,2,2,3,3,4,4,5,5,6,6,7,7,8,8,9,9,10,10,11,11,12,12,13,13,14,14,15,15,16,16,17,17,18,18,19,19,20,20,21,21,22,22,24,24,25,25,27,27,28,28,29,29,31,31,32,32,33,33,34,34,35,35,36,36,37,37,38,38,39,39,41,41,42,42,43,43,44,44,45,45,46,46,48,48,53,53,54,54],"right_children":[2,4,6,8,10,12,14,16,18,20,22,24,26,28,30,32,34,36,38,40,42,44,46,-1,48,50,-1,52,54,56,-1,58,60,62,64,66,68,70,72,74,-1,76,78,80,82,84,86,-1,88,-1,-1,-1,-1,90,92,-1,-1,-1,-1,-1,-1,-1,-1,-1,-1,-1,-1,-1,-1,-1,-1,-1,-1,-1,-1,-1,-1,-1,-1,-1,-1,-1,-1,-1,-1,-1,-1,-1,-1,-1,-1,-1,-1],"split_conditions":[1E0,1E0,9.365E1,1E0,1E0,1E0,7.2E1,1.7E1,2.3E1,1E0,1E0,1E0,1E0,9.65E1,1.044E2,8.015E1,9.82E1,1E0,2.10605E3,2.6E1,8.24E1,8.015E1,1E0,-3.1555665E-1,1E0,4.95E1,-2.572804E-1,1E0,1.0575E2,1E0,-3.1573915E-1,1E0,1.3E1,1E0,1E0,1E0,8.025E1,7.89E1,1E0,1E0,-2.9985568E-1,1E0,1E0,1.16075E3,7.03905E3,1E0,3.9E1,-2.706303E-1,1E0,1.0383513E-1,-5.8685046E-2,2.3740749E-1,-1.2638623E-1,7E1,1.0995E2,9.3476705E-2,-2.4515341E-1,-6.8442407E-3,1.6649346E-1,2.8392777E-1,2.6708089E-2,-4.9963515E-2,-2.6196653E-1,2.5736213E-1,-5.570816E-2,1.277228E-1,-6.84527E-2,3.0130032E-1,1.6534512E-1,-1.9251657E-1,5.1012237E-2,1.3921921E-1,-6.293018E-2,-2.536756E-1,3.07811E-2,-2.874176E-1,-1.0376142E-1,9.149478E-2,-2.1179914E-1,-9.154569E-2,-3.0277407E-1,-9.722167E-3,-2.2023307E-1,-1.306905E-1,1.2709951E-1,-3.123934E-1,-1.8707138E-2,1.2656783E-1,-1.62772E-1,-2.81848E-1,-6.646017E-2,5.2798677E-2,-1.9544135E-1],"split_indices":[26,25,7,28,24,28,4,4,4,28,0,1,5,7,7,7,7,6,8,4,7,7,14,0,22,7,0,0,7,14,0,10,4,20,14,16,8,7,20,10,0,0,1,8,8,6,4,0,6,0,0,0,0,4,7,0,0,0,0,0,0,0,0,0,0,0,0,0,0,0,0,0,0,0,0,0,0,0,0,0,0,0,0,0,0,0,0,0,0,0,0,0,0],"split_type":[0,0,0,0,0,0,0,0,0,0,0,0,0,0,0,0,0,0,0,0,0,0,0,0,0,0,0,0,0,0,0,0,0,0,0,0,0,0,0,0,0,0,0,0,0,0,0,0,0,0,0,0,0,0,0,0,0,0,0,0,0,0,0,0,0,0,0,0,0,0,0,0,0,0,0,0,0,0,0,0,0,0,0,0,0,0,0,0,0,0,0,0,0],"sum_hessian":[9.828242E2,8.291888E2,1.5363544E2,6.59745E2,1.6944382E2,1.1055877E2,4.3076668E1,3.1897632E2,3.4076865E2,8.080367E1,8.864014E1,1.01811035E2,8.747737E0,2.9689634E1,1.3387033E1,1.8982336E2,1.2915295E2,2.3607033E2,1.04698326E2,6.4181755E1,1.6621918E1,4.5688107E1,4.295203E1,9.44032E1,7.4078355E0,2.2775943E0,6.470143E0,3.1890106E0,2.6500624E1,3.3477268E0,1.0039307E1,1.5797481E2,3.1848555E1,1.0796945E2,2.1183495E1,5.8901722E1,1.7716861E2,1.7001068E1,8.769726E1,2.4275955E1,3.99058E1,1.05199375E1,6.1019807E0,1.2590635E1,3.3097473E1,2.553547E1,1.7416561E1,3.8724775E0,3.5353577E0,1.0753586E0,1.2022357E0,1.5322509E0,1.6567597E0,1.0600264E1,1.5900361E1,1.1333083E0,2.2144186E0,1.3793253E2,2.0042278E1,2.5119387E1,6.729168E0,8.547613E1,2.2493322E1,1.25679245E1,8.615571E0,4.5834587E1,1.3067135E1,3.0602818E1,1.4656578E2,1.3389818E1,3.6112509E0,6.65887E1,2.110856E1,2.1238335E1,3.0376213E0,4.3879786E0,6.131959E0,4.978645E0,1.123336E0,3.1123648E0,9.478271E0,2.6929369E1,6.1681023E0,6.41221E0,1.9123259E1,4.452965E0,1.2963595E1,1.002461E0,2.5328968E0,8.263627E0,2.3366368E0,7.712666E0,8.187695E0],"tree_param":{"num_deleted":"0","num_feature":"30","num_nodes":"93","size_leaf_vector":"1"}},{"base_weights":[-6.1607145E-2,5.646236E-2,-8.1230706E-1,1.6847336E-1,-4.1780254E-1,-9.4014925E-1,-5.267276E-1,-1.786211E-2,2.9466966E-1,-7.201328E-1,-1.7319702E-1,-2.917283E-1,-5.2340806E-1,-4.1006154E-1,-2.9096842E-1,2.0667557E-1,-1.6817531E-1,3.7073687E-1,-9.238451E-2,-8.199246E-1,-3.52265E-1,-4.703771E-1,-8.8699184E-2,7.2895415E-2,-7.6207334E-1,-2.8135255E-1,-3.3101183E-1,-2.3842163E-1,2.7135348E-1,1.3786735E-1,-2.8552616E-1,6.0587364E-1,2.5099894E-1,1.8476869E-1,-4.1321152E-1,-6.253786E-1,-9.240279E-1,-5.7156575E-1,1.2009318E-2,-6.81474E-1,4.2977247E-1,-3.2383382E-2,-7.271328E-1,-6.093579E-2,9.900043E-2,-2.6134625E-1,-7.127222E-2,1.7481719E-1,-4.0907007E-1,5.676152E-2,2.9929748E-1,8.773271E-2,-1.265462E-1,-5.4285984E-2,-1.7165664E-1,1.8740457E-1,-1.9739988E-1,-1.7588992E-2,1.2176373E-1,-1.0173535E-1,2.384512E-1,1.482912E-1,-1.752722E-1,-2.3474614E-1,1.0480581E-2,-1.452002E-1,-2.8994134E-1,-7.305474E-2,-2.7648422E-1,-9.1742076E-2,1.5772745E-1,-1.0185835E-1,-3.0862632E-1,-8.291404E-2,2.492211E-1,-2.6777595E-2,2.7702543E-1,-3.0285156E-1,7.5011976E-2,-2.0899114E-1,2.0085046E-1,-1.8376762E-1,-4.7644712E-2],"categories":[],"categories_nodes":[],"categories_segments":[],"categories_sizes":[],"default_left":[0,0,0,0,0,0,0,0,0,0,0,0,0,0,0,0,0,0,0,0,0,0,0,0,0,0,0,0,0,0,0,0,0,0,0,0,0,0,0,0,0,0,0,0,0,0,0,0,0,0,0,0,0,0,0,0,0,0,0,0,0,0,0,0,0,0,0,0,0,0,0,0,0,0,0,0,0,0,0,0,0,0,0],"id":4,"left_children":[1,3,5,7,9,11,13,15,17,19,21,-1,23,25,-1,27,29,31,33,35,37,39,41,43,45,-1,47,-1,49,51,53,55,57,59,61,63,65,67,69,71,73,75,77,-1,-1,-1,-1,79,81,-1,-1,-1,-1,-1,-1,-1,-1,-1,-1,-1,-1,-1,-1,-1,-1,-1,-1,-1,-1,-1,-1,-1,-1,-1,-1,-1,-1,-1,-1,-1,-1,-1,-1],"loss_changes":[8.2766014E1,4.2960182E1,4.1378098E0,1.5379974E1,1.1303722E1,6.530533E-1,1.7487373E0,8.977112E0,1.1513119E1,2.2367477E0,2.1364512E0,0E0,1.2475357E0,1.1329513E0,0E0,7.126066E0,5.75903E0,9.027546E0,5.841606E0,5.029106E-1,1.3196812E0,3.8977065E0,2.4490266E0,3.016929E-1,1.4024973E-1,0E0,1.3205943E0,0E0,5.8353033E0,4.0005255E0,3.3571053E0,3.009285E0,1.0465568E1,1.1608429E1,5.0010366E0,2.2780695E0,1.4234734E-1,9.5590854E-1,1.3290355E0,1.5214987E0,1.4236212E0,3.5747545E0,1.7777064E0,0E0,0E0,0E0,0E0,2.591609E0,1.3135753E0,0E0,0E0,0E0,0E0,0E0,0E0,0E0,0E0,0E0,0E0,0E0,0E0,0E0,0E0,0E0,0E0,0E0,0E0,0E0,0E0,0E0,0E0,0E0,0E0,0E0,0E0,0E0,0E0,0E0,0E0,0E0,0E0,0E0,0E0],"parents":[2147483647,0,0,1,1,2,2,3,3,4,4,5,5,6,6,7,7,8,8,9,9,10,10,12,12,13,13,15,15,16,16,17,17,18,18,19,19,20,20,21,21,22,22,23,23,24,24,26,26,28,28,29,29,30,30,31,31,32,32,33,33,34,34,35,35,36,36,37,37,38,38,39,39,40,40,41,41,42,42,47,47,48,48],"right_children":[2,4,6,8,10,12,14,16,18,20,22,-1,24,26,-1,28,30,32,34,36,38,40,42,44,46,-1,48,-1,50,52,54,56,58,60,62,64,66,68,70,72,74,76,78,-1,-1,-1,-1,80,82,-1,-1,-1,-1,-1,-1,-1,-1,-1,-1,-1,-1,-1,-1,-1,-1,-1,-1,-1,-1,-1,-1,-1,-1,-1,-1,-1,-1,-1,-1,-1,-1,-1,-1],"split_conditions":[1E0,1E0,9.185E1,1E0,1E0,1E0,7.8812E3,4E0,1E0,1E0,1E0,-2.917283E-1,1E0,4.52405E3,-2.9096842E-1,1.945E1,1E0,8E0,3E1,2.6E1,8.24E1,6.5E1,7.1E1,3.4603E3,5.2645E3,-2.8135255E-1,5.59765E3,-2.3842163E-1,1E0,1E0,2.3E1,1.051E2,1E0,8.93E1,8.425E1,9.3415E2,1E0,6.02E1,1E0,4.9E1,5.2645E3,7.4055E3,7.8812E3,-6.093579E-2,9.900043E-2,-2.6134625E-1,-7.127222E-2,1E0,1.0575E2,5.676152E-2,2.9929748E-1,8.773271E-2,-1.265462E-1,-5.4285984E-2,-1.7165664E-1,1.8740457E-1,-1.9739988E-1,-1.7588992E-2,1.2176373E-1,-1.0173535E-1,2.384512E-1,1.482912E-1,-1.752722E-1,-2.3474614E-1,1.0480581E-2,-1.452002E-1,-2.8994134E-1,-7.305474E-2,-2.7648422E-1,-9.1742076E-2,1.5772745E-1,-1.0185835E-1,-3.0862632E-1,-8.291404E-2,2.492211E-1,-2.6777595E-2,2.7702543E-1,-3.0285156E-1,7.5011976E-2,-2.0899114E-1,2.0085046E-1,-1.8376762E-1,-4.7644712E-2],"split_indices":[26,25,7,11,24,28,8,4,14,28,22,0,5,8,0,7,5,4,4,4,7,4,4,8,8,0,8,0,1,3,4,7,10,7,7,8,5,7,3,4,8,8,8,0,0,0,0,6,7,0,0,0,0,0,0,0,0,0,0,0,0,0,0,0,0,0,0,0,0,0,0,0,0,0,0,0,0,0,0,0,0,0,0],"split_type":[0,0,0,0,0,0,0,0,0,0,0,0,0,0,0,0,0,0,0,0,0,0,0,0,0,0,0,0,0,0,0,0,0,0,0,0,0,0,0,0,0,0,0,0,0,0,0,0,0,0,0,0,0,0,0,0,0,0,0,0,0,0,0,0,0,0,0,0,0,0,0,0,0,0,0,0,0,0,0,0,0,0,0],"sum_hessian":[9.322698E2,8.063694E2,1.25900375E2,6.5283E2,1.535394E2,8.538495E1,4.0515423E1,2.63951E2,3.8887903E2,6.779783E1,8.574157E1,7.800939E1,7.375558E0,3.3596313E1,6.919112E0,1.05692566E2,1.582584E2,3.250413E2,6.3837746E1,5.236412E1,1.543371E1,1.7970905E1,6.777067E1,2.3067443E0,5.0688133E0,2.9612675E0,3.0635044E1,5.7273774E0,9.9965195E1,4.381561E1,1.144428E2,1.0830197E2,2.1673932E2,3.4477615E1,2.936013E1,2.0695711E1,3.1668407E1,9.278692E0,6.1550183E0,1.4753862E1,3.2170417E0,6.3242783E1,4.527881E0,1.2137299E0,1.0930145E0,3.6490006E0,1.4198127E0,3.9297967E0,2.6705248E1,9.0939964E1,9.025225E0,3.4707546E1,9.108063E0,8.504875E1,2.939405E1,1.07212234E2,1.0897326E0,7.247408E1,1.4426523E2,1.8787924E1,1.5689692E1,4.3560195E0,2.500411E1,1.6568537E1,4.127174E0,3.8770287E0,2.779138E1,5.665188E0,3.613504E0,4.05269E0,2.1023283E0,8.430516E0,6.3233466E0,1.2776462E0,1.9393955E0,6.0546555E1,2.6962283E0,3.4871235E0,1.0407575E0,1.2751677E0,2.654629E0,1.3930354E1,1.2774894E1],"tree_param":{"num_deleted":"0","num_feature":"30","num_nodes":"83","size_leaf_vector":"1"}},{"base_weights":[-5.3987194E-2,3.6804076E-2,-7.2954345E-1,1.1980924E-1,-3.3974057E-1,-8.751577E-1,-4.434659E-1,5.2854933E-2,3.553243E-1,-6.311222E-1,-1.3258725E-1,-9.12568E-1,-4.552831E-1,-3.3503485E-1,-2.743027E-1,-7.0771925E-2,1.8736781E-1,3.9758822E-1,-3.0054805E-1,-7.3551387E-1,-2.8968844E-1,-3.666738E-2,-3.505522E-1,-2.8008908E-1,-5.3034574E-1,-2.4559855E-1,-5.8903623E-2,-2.5535813E-1,-2.6322E-1,4.7563873E-2,-2.7469948E-1,2.5412688E-1,-5.0695322E-2,2.4794757E-1,5.6182224E-1,-7.453547E-1,6.7199785E-1,-5.31641E-1,-8.541121E-1,-2.3898628E-1,-1.38139E-1,-2.6650956E-1,2.219892E-1,2.3161808E-2,-6.627348E-1,9.2036347E-4,-2.3825327E-1,1.333821E-1,-4.5819163E-1,-1.7402261E-2,-4.3883178E-1,-1.9598117E-3,1.8816727E-1,-1.05684124E-1,1.22978486E-1,4.1758833E-3,1.00129575E-1,-2.8506005E-2,3.2036296E-1,1.8136051E-1,1.5509776E-2,2.0511615E-1,6.431416E-2,-3.1958655E-1,-5.4088425E-2,3.1515095E-1,6.9387835E-3,-2.0009714E-1,5.180608E-2,-1.2311609E-1,-2.7096668E-1,1.9317132E-1,-8.3668664E-2,2.2062588E-1,-9.809912E-2,1.9315152E-1,-1.6473254E-2,-1.4999524E-1,1.768514E-1,2.5025364E-2,-2.4400105E-1,-2.6047649E-2,-1.7972651E-1,1.6059087E-1,-8.64437E-2,-2.0066068E-1,-2.4659881E-2],"categories":[],"categories_nodes":[],"categories_segments":[],"categories_sizes":[],"default_left":[0,0,0,0,0,0,0,0,0,0,0,0,0,0,0,0,0,0,0,0,0,0,0,0,0,0,0,0,0,0,0,0,0,0,0,0,0,0,0,0,0,0,0,0,0,0,0,0,0,0,0,0,0,0,0,0,0,0,0,0,0,0,0,0,0,0,0,0,0,0,0,0,0,0,0,0,0,0,0,0,0,0,0,0,0,0,0],"id":5,"left_children":[1,3,5,7,9,11,13,15,17,19,21,23,25,27,-1,29,31,33,35,37,39,41,43,-1,45,-1,47,-1,49,51,53,55,57,59,61,63,65,67,69,-1,71,73,75,77,79,-1,-1,-1,81,83,85,-1,-1,-1,-1,-1,-1,-1,-1,-1,-1,-1,-1,-1,-1,-1,-1,-1,-1,-1,-1,-1,-1,-1,-1,-1,-1,-1,-1,-1,-1,-1,-1,-1,-1,-1,-1],"loss_changes":[5.4447647E1,2.4516958E1,3.9928055E0,1.0111101E1,8.469933E0,6.630821E-1,1.6083722E0,8.3508415E0,4.0564423E0,1.8762169E0,1.7452528E0,4.4059753E-3,1.0483354E0,9.6434855E-1,0E0,6.335282E0,3.833373E0,3.1504326E0,4.4667134E0,6.156502E-1,1.0711633E0,3.5970755E0,2.9997537E0,0E0,7.843193E-1,0E0,1.1523963E0,0E0,1.269804E0,5.2294173E0,5.2619066E0,3.5899954E0,2.7531018E0,4.995489E0,2.5228138E0,1.0308557E0,8.1146085E-1,1.9188299E0,2.0292473E-1,0E0,1.6157017E0,2.1776834E0,3.3697796E0,4.0305624E0,1.6378465E0,0E0,0E0,0E0,1.11456215E-1,2.1553097E0,1.357688E0,0E0,0E0,0E0,0E0,0E0,0E0,0E0,0E0,0E0,0E0,0E0,0E0,0E0,0E0,0E0,0E0,0E0,0E0,0E0,0E0,0E0,0E0,0E0,0E0,0E0,0E0,0E0,0E0,0E0,0E0,0E0,0E0,0E0,0E0,0E0,0E0],"parents":[2147483647,0,0,1,1,2,2,3,3,4,4,5,5,6,6,7,7,8,8,9,9,10,10,11,11,12,12,13,13,15,15,16,16,17,17,18,18,19,19,20,20,21,21,22,22,24,24,26,26,28,28,29,29,30,30,31,31,32,32,33,33,34,34,35,35,36,36,37,37,38,38,40,40,41,41,42,42,43,43,44,44,48,48,49,49,50,50],"right_children":[2,4,6,8,10,12,14,16,18,20,22,24,26,28,-1,30,32,34,36,38,40,42,44,-1,46,-1,48,-1,50,52,54,56,58,60,62,64,66,68,70,-1,72,74,76,78,80,-1,-1,-1,82,84,86,-1,-1,-1,-1,-1,-1,-1,-1,-1,-1,-1,-1,-1,-1,-1,-1,-1,-1,-1,-1,-1,-1,-1,-1,-1,-1,-1,-1,-1,-1,-1,-1,-1,-1,-1,-1],"split_conditions":[1E0,1E0,9.185E1,1E0,1E0,1E0,7.8812E3,1E0,6E1,1E0,1E0,1E0,6.4E1,4.52405E3,-2.743027E-1,1.7E1,1E0,1E0,6.69265E3,2.6E1,2.475E1,5.2645E3,5E1,-2.8008908E-1,6.7E1,-2.4559855E-1,1E0,-2.5535813E-1,1E0,8.825E1,1.0175E2,1E0,5.985E3,2.8395E2,1.0015E2,6.6E1,1E0,1E0,1E0,-2.3898628E-1,4.98E1,4.545E1,6E1,7.92E1,7.59E1,9.2036347E-4,-2.3825327E-1,1.333821E-1,7.1E1,1E0,1.0795E2,-1.9598117E-3,1.8816727E-1,-1.05684124E-1,1.22978486E-1,4.1758833E-3,1.00129575E-1,-2.8506005E-2,3.2036296E-1,1.8136051E-1,1.5509776E-2,2.0511615E-1,6.431416E-2,-3.1958655E-1,-5.4088425E-2,3.1515095E-1,6.9387835E-3,-2.0009714E-1,5.180608E-2,-1.2311609E-1,-2.7096668E-1,1.9317132E-1,-8.3668664E-2,2.2062588E-1,-9.809912E-2,1.9315152E-1,-1.6473254E-2,-1.4999524E-1,1.768514E-1,2.5025364E-2,-2.4400105E-1,-2.6047649E-2,-1.7972651E-1,1.6059087E-1,-8.64437E-2,-2.0066068E-1,-2.4659881E-2],"split_indices":[26,25,7,1,24,28,8,28,4,28,3,1,4,8,0,4,3,24,8,4,7,8,4,0,4,0,20,0,14,7,7,6,8,8,7,4,27,10,5,0,7,7,4,7,7,0,0,0,4,20,7,0,0,0,0,0,0,0,0,0,0,0,0,0,0,0,0,0,0,0,0,0,0,0,0,0,0,0,0,0,0,0,0,0,0,0,0],"split_type":[0,0,0,0,0,0,0,0,0,0,0,0,0,0,0,0,0,0,0,0,0,0,0,0,0,0,0,0,0,0,0,0,0,0,0,0,0,0,0,0,0,0,0,0,0,0,0,0,0,0,0,0,0,0,0,0,0,0,0,0,0,0,0,0,0,0,0,0,0,0,0,0,0,0,0,0,0,0,0,0,0,0,0,0,0,0,0],"sum_hessian":[8.8627716E2,7.82111E2,1.0416616E2,6.414026E2,1.4070839E2,6.766521E1,3.6500946E1,5.003758E2,1.4102684E2,5.761731E1,8.309108E1,6.1052124E1,6.613087E0,3.1060095E1,5.440851E0,2.609855E2,2.3939027E2,1.3285928E2,8.167552E0,4.3242073E1,1.4375237E1,5.851055E1,2.4580526E1,5.6496273E1,4.555851E0,2.8943548E0,3.7187324E0,2.4681315E0,2.8591965E1,1.6563628E2,9.534923E1,1.8690877E2,5.2481518E1,7.083144E1,6.2027843E1,5.764628E0,2.4029238E0,1.791997E1,2.5322102E1,2.3288229E0,1.2046414E1,3.096484E1,2.7545712E1,1.1609088E1,1.2971438E1,1.8347453E0,2.7211058E0,1.5945153E0,2.124217E0,1.2372412E1,1.6219551E1,1.5240213E2,1.323414E1,8.60802E1,9.269027E0,4.683093E1,1.4007784E2,5.136132E1,1.1201991E0,2.4405554E1,4.6425884E1,4.520131E1,1.6826534E1,3.1154258E0,2.649202E0,1.1267052E0,1.2762188E0,1.5075876E1,2.8440936E0,3.4556592E0,2.1866442E1,1.2922237E0,1.0754191E1,1.1276685E0,2.9837172E1,1.0390667E1,1.7155045E1,6.0955954E0,5.5134926E0,2.253357E0,1.0718081E1,1.0288028E0,1.0954144E0,3.7466693E0,8.625743E0,9.327533E0,6.8920193E0],"tree_param":{"num_deleted":"0","num_feature":"30","num_nodes":"87","size_leaf_vector":"1"}},{"base_weights":[-4.513456E-2,2.4867658E-2,-6.481365E-1,8.6193405E-2,-2.7143568E-1,-8.108582E-1,-3.6866158E-1,3.3467814E-1,3.7875038E-2,-5.3480154E-1,-8.226939E-2,-8.533236E-1,-4.008058E-1,-2.537298E-1,-7.835212E-1,1.5072852E-1,5.645935E-1,7.4665025E-2,-3.983933E-1,-5.938202E-1,1.2103921E-2,-3.8419474E-2,-6.6965103E-1,-9.615188E-2,-8.6668533E-1,9.254772E-2,-6.500116E-1,-3.3822164E-1,1.9440949E-1,-5.5698577E-2,-2.6696256E-1,2.1970701E-1,-3.069669E-1,6.473882E-1,-2.497594E-1,2.282387E-2,2.9741028E-1,-2.2584626E-1,-7.2277886E-1,-8.0641675E-1,-4.8592412E-1,-2.1133149E-1,3.761162E-1,-8.061056E-2,7.272965E-1,-2.8343403E-1,6.928164E-2,-2.8636327E-1,-6.795135E-1,1.0720317E-1,-5.735973E-2,-2.312959E-1,-5.2615833E-2,4.914869E-2,-3.947435E-1,6.5012324E-1,-1.18833914E-1,2.1128E-1,2.8876288E-2,2.0931889E-1,1.1505183E-2,7.549336E-2,-1.7964208E-1,1.8468993E-2,-8.98417E-2,1.89119E-1,2.6118381E-2,-8.7391496E-2,2.0277323E-1,-2.671321E-1,5.5812463E-2,-2.8705317E-1,-1.4660478E-1,-5.635505E-2,-1.8330605E-1,2.0586824E-1,-7.954549E-2,-1.2589942E-2,-2.718157E-1,2.7803046E-1,4.2133503E-2,-2.2356251E-1,-4.6144076E-2,-1.851115E-1,-6.520315E-2,2.537251E-1,5.8243047E-2],"categories":[],"categories_nodes":[],"categories_segments":[],"categories_sizes":[],"default_left":[0,0,0,0,0,0,0,0,0,0,0,0,0,0,0,0,0,0,0,0,0,0,0,0,0,0,0,0,0,0,0,0,0,0,0,0,0,0,0,0,0,0,0,0,0,0,0,0,0,0,0,0,0,0,0,0,0,0,0,0,0,0,0,0,0,0,0,0,0,0,0,0,0,0,0,0,0,0,0,0,0,0,0,0,0,0,0],"id":6,"left_children":[1,3,5,7,9,11,13,15,17,19,21,23,25,27,29,31,33,35,37,39,41,43,45,-1,47,49,51,53,55,-1,-1,57,-1,59,61,63,65,67,69,71,73,-1,75,77,79,-1,-1,-1,81,-1,-1,-1,-1,-1,83,85,-1,-1,-1,-1,-1,-1,-1,-1,-1,-1,-1,-1,-1,-1,-1,-1,-1,-1,-1,-1,-1,-1,-1,-1,-1,-1,-1,-1,-1,-1,-1],"loss_changes":[3.6044785E1,1.3937162E1,3.7401352E0,7.613385E0,6.509528E0,6.209183E-1,1.4469748E0,4.2826986E0,8.58283E0,1.7761946E0,1.976548E0,7.266617E-2,9.300251E-1,1.1451718E0,2.8045368E-1,4.9811683E0,3.232068E0,5.6778812E0,2.1652527E0,7.433071E-1,1.9129469E0,2.4298797E0,1.5411744E0,0E0,1.3140106E-1,3.1249937E-1,1.4183998E-1,7.5566006E-1,1.6453741E0,0E0,0E0,3.3001132E0,0E0,1.2491207E0,1.0124859E0,5.0180473E0,6.4493494E0,1.8857242E0,2.297443E0,2.5623608E-1,1.2031031E0,0E0,1.144801E0,2.2097313E0,3.3022165E-1,0E0,0E0,0E0,5.285492E-1,0E0,0E0,0E0,0E0,0E0,7.405498E-1,1.2923002E-1,0E0,0E0,0E0,0E0,0E0,0E0,0E0,0E0,0E0,0E0,0E0,0E0,0E0,0E0,0E0,0E0,0E0,0E0,0E0,0E0,0E0,0E0,0E0,0E0,0E0,0E0,0E0,0E0,0E0,0E0,0E0],"parents":[2147483647,0,0,1,1,2,2,3,3,4,4,5,5,6,6,7,7,8,8,9,9,10,10,11,11,12,12,13,13,14,14,15,15,16,16,17,17,18,18,19,19,20,20,21,21,22,22,24,24,25,25,26,26,27,27,28,28,31,31,33,33,34,34,35,35,36,36,37,37,38,38,39,39,40,40,42,42,43,43,44,44,48,48,54,54,55,55],"right_children":[2,4,6,8,10,12,14,16,18,20,22,24,26,28,30,32,34,36,38,40,42,44,46,-1,48,50,52,54,56,-1,-1,58,-1,60,62,64,66,68,70,72,74,-1,76,78,80,-1,-1,-1,82,-1,-1,-1,-1,-1,84,86,-1,-1,-1,-1,-1,-1,-1,-1,-1,-1,-1,-1,-1,-1,-1,-1,-1,-1,-1,-1,-1,-1,-1,-1,-1,-1,-1,-1,-1,-1,-1],"split_conditions":[1E0,1E0,9.185E1,2E0,1E0,1E0,7.73265E3,5.025E1,1E0,5.2645E3,7.1E1,1.94E1,1E0,7.5119E3,1E0,4.98E1,1E0,9.6E1,2.04E1,2.075E1,6.5E1,7.4055E3,1.0915E2,-9.615188E-2,1E0,1E0,5.2645E3,9.395E1,7.2E1,-5.5698577E-2,-2.6696256E-1,1E0,-3.069669E-1,1E0,6.02E1,3.3638E3,1.003E2,2.035E1,1E0,1E0,4.98E1,-2.1133149E-1,6.9E1,1.131E2,1E0,-2.8343403E-1,6.928164E-2,-2.8636327E-1,1E0,1.0720317E-1,-5.735973E-2,-2.312959E-1,-5.2615833E-2,4.914869E-2,1.031E2,1.0915E2,-1.18833914E-1,2.1128E-1,2.8876288E-2,2.0931889E-1,1.1505183E-2,7.549336E-2,-1.7964208E-1,1.8468993E-2,-8.98417E-2,1.89119E-1,2.6118381E-2,-8.7391496E-2,2.0277323E-1,-2.671321E-1,5.5812463E-2,-2.8705317E-1,-1.4660478E-1,-5.635505E-2,-1.8330605E-1,2.0586824E-1,-7.954549E-2,-1.2589942E-2,-2.718157E-1,2.7803046E-1,4.2133503E-2,-2.2356251E-1,-4.6144076E-2,-1.851115E-1,-6.520315E-2,2.537251E-1,5.8243047E-2],"split_indices":[26,25,7,4,22,28,8,7,12,8,4,7,5,8,6,7,20,7,7,7,4,8,7,0,27,20,8,7,4,0,0,5,0,14,7,8,7,7,27,3,7,0,4,7,28,0,0,0,1,0,0,0,0,0,7,7,0,0,0,0,0,0,0,0,0,0,0,0,0,0,0,0,0,0,0,0,0,0,0,0,0,0,0,0,0,0,0],"split_type":[0,0,0,0,0,0,0,0,0,0,0,0,0,0,0,0,0,0,0,0,0,0,0,0,0,0,0,0,0,0,0,0,0,0,0,0,0,0,0,0,0,0,0,0,0,0,0,0,0,0,0,0,0,0,0,0,0,0,0,0,0,0,0,0,0,0,0,0,0,0,0,0,0,0,0,0,0,0,0,0,0,0,0,0,0,0,0],"sum_hessian":[8.5252795E2,7.647117E2,8.781627E1,6.341675E2,1.305442E2,5.4299515E1,3.351675E1,1.0227515E2,5.3189233E2,5.3805965E1,7.673824E1,4.8224342E1,6.0751715E0,2.7507685E1,6.009066E0,5.7736877E1,4.453827E1,4.912912E2,4.0601147E1,4.848769E1,5.318274E0,7.239885E1,4.339398E0,1.7910414E0,4.6433304E1,2.2498217E0,3.8253496E0,2.3350477E1,4.157206E0,1.3221908E0,4.6868753E0,5.530041E1,2.4364674E0,4.061409E1,3.924179E0,3.994311E2,9.18601E1,2.76107E1,1.2990445E1,1.41442E1,3.434349E1,1.4765484E0,3.8417256E0,6.946599E1,2.932863E0,3.2863526E0,1.053045E0,2.8809998E1,1.7623306E1,1.0296052E0,1.2202165E0,2.5507843E0,1.2745652E0,2.1707222E0,2.1179756E1,2.2894666E0,1.8677394E0,1.0273101E1,4.502731E1,3.737883E1,3.2352576E0,1.7251167E0,2.1990623E0,3.5729398E2,4.213712E1,3.4789993E1,5.7070103E1,2.6373222E1,1.2374791E0,1.0984263E1,2.006181E0,8.234312E0,5.9098883E0,1.089203E1,2.3451462E1,2.5422206E0,1.2995051E0,6.736314E1,2.1028488E0,1.7565786E0,1.1762846E0,1.5294457E1,2.3288488E0,8.300447E0,1.2879308E1,1.0039488E0,1.2855178E0],"tree_param":{"num_deleted":"0","num_feature":"30","num_nodes":"87","size_leaf_vector":"1"}},{"base_weights":[-3.8099732E-2,1.5549962E-2,-5.6667817E-1,7.132674E-2,-1.8878344E-1,-7.38275E-1,-2.8088E-1,1.2470117E-1,-2.5895938E-1,-1.3152951E-1,-5.473972E-1,-7.806031E-1,-3.723346E-1,-1.24895595E-1,-7.0117724E-1,1.9241679E-1,-1.3235061E-1,8.5158184E-2,-4.3230015E-1,-2.0704967E-1,2.3780476E-1,-6.623646E-1,1.3943528E-1,-8.284049E-1,-2.833765E-1,7.8087956E-2,-1.8481474E-1,4.1860273E-1,-2.383647E-1,-1.6476613E-1,-2.654548E-1,2.6258984E-1,3.729897E-2,-3.1421384E-1,7.8246E-2,-1.622013E-1,2.1036871E-1,-1.784551E-1,-5.5662686E-1,-1.13198176E-1,-5.1820576E-1,-1.9725111E-1,9.0286666E-1,-2.6414663E-1,-1.7789441E-1,-7.143782E-2,-8.4699315E-1,-2.093982E-1,1.8332443E-1,8.863172E-2,-5.1674336E-2,-5.7953205E-2,3.1986156E-1,-2.4706094E-1,-7.733174E-2,1.1104996E-1,-1.7736986E-1,1.106481E-1,3.8662247E-2,-2.7903514E-2,1.2598848E-1,-7.6388374E-2,-2.5251684E-1,-5.2415766E-2,9.809322E-2,-8.068698E-3,1.8980415E-1,-1.2339638E-1,1.4599372E-1,-1.1940485E-1,-2.3991558E-1,-6.297806E-2,7.7533536E-2,-1.9122164E-1,1.1178576E-1,3.014772E-1,-1.2158947E-1,4.9190634E-1,6.210531E-2,9.728124E-2,-2.7941352E-1,-1.9685571E-1,-2.8449124E-1,1.3434246E-1,-4.1975252E-2,3.86152E-2,-1.2454564E-1],"categories":[],"categories_nodes":[],"categories_segments":[],"categories_sizes":[],"default_left":[0,0,0,0,0,0,0,0,0,0,0,0,0,0,0,0,0,0,0,0,0,0,0,0,0,0,0,0,0,0,0,0,0,0,0,0,0,0,0,0,0,0,0,0,0,0,0,0,0,0,0,0,0,0,0,0,0,0,0,0,0,0,0,0,0,0,0,0,0,0,0,0,0,0,0,0,0,0,0,0,0,0,0,0,0,0,0],"id":7,"left_children":[1,3,5,7,9,11,13,15,17,19,21,23,25,27,29,31,33,35,37,39,41,43,-1,45,47,49,-1,51,53,55,-1,57,59,61,63,-1,65,67,69,71,73,75,77,-1,79,-1,81,-1,83,-1,-1,-1,-1,-1,85,-1,-1,-1,-1,-1,-1,-1,-1,-1,-1,-1,-1,-1,-1,-1,-1,-1,-1,-1,-1,-1,-1,-1,-1,-1,-1,-1,-1,-1,-1,-1,-1],"loss_changes":[2.3444593E1,8.575459E0,3.528555E0,1.0448783E1,3.2412114E0,4.3713188E-1,1.8918793E0,8.891439E0,4.959537E0,3.9671957E0,2.856286E0,7.445431E-1,7.927327E-1,1.5328327E0,6.380372E-1,4.382951E0,4.1147966E0,2.3455107E0,1.6379185E0,3.3625894E0,7.2124476E0,1.9651413E0,0E0,2.0502853E-1,1.1213077E0,2.2876446E-1,0E0,1.9398129E0,1.8078588E0,9.621267E-1,0E0,3.8972397E0,6.3651485E0,1.5932112E0,3.221303E0,0E0,2.4671483E0,3.2309763E0,1.0881662E0,3.3359041E0,3.0906072E0,4.2885075E0,4.681953E0,0E0,3.1347635E0,0E0,6.485939E-2,0E0,3.3683506E-1,0E0,0E0,0E0,0E0,0E0,1.2143947E0,0E0,0E0,0E0,0E0,0E0,0E0,0E0,0E0,0E0,0E0,0E0,0E0,0E0,0E0,0E0,0E0,0E0,0E0,0E0,0E0,0E0,0E0,0E0,0E0,0E0,0E0,0E0,0E0,0E0,0E0,0E0,0E0],"parents":[2147483647,0,0,1,1,2,2,3,3,4,4,5,5,6,6,7,7,8,8,9,9,10,10,11,11,12,12,13,13,14,14,15,15,16,16,17,17,18,18,19,19,20,20,21,21,23,23,24,24,25,25,27,27,28,28,29,29,31,31,32,32,33,33,34,34,36,36,37,37,38,38,39,39,40,40,41,41,42,42,44,44,46,46,48,48,54,54],"right_children":[2,4,6,8,10,12,14,16,18,20,22,24,26,28,30,32,34,36,38,40,42,44,-1,46,48,50,-1,52,54,56,-1,58,60,62,64,-1,66,68,70,72,74,76,78,-1,80,-1,82,-1,84,-1,-1,-1,-1,-1,86,-1,-1,-1,-1,-1,-1,-1,-1,-1,-1,-1,-1,-1,-1,-1,-1,-1,-1,-1,-1,-1,-1,-1,-1,-1,-1,-1,-1,-1,-1,-1,-1],"split_conditions":[1E0,1E0,9.365E1,1E0,6E1,1E0,7.2E1,1E0,2.47E1,1E0,1.1525E2,1E0,1E0,9.865E1,1.044E2,1E0,1E0,1.945E1,1.99E1,4.3E1,4E1,1E0,1.3943528E-1,1.94E1,1E0,4.95E1,-1.8481474E-1,1E0,1.0395E2,1E0,-2.654548E-1,1.1E1,9.915E1,5.4E1,1E0,-1.622013E-1,1E0,1.975E1,1E0,9.125E1,5.8E1,4E0,1E0,-2.6414663E-1,1.0535E2,-7.143782E-2,5.7E1,-2.093982E-1,6.8E1,8.863172E-2,-5.1674336E-2,-5.7953205E-2,3.1986156E-1,-2.4706094E-1,1E0,1.1104996E-1,-1.7736986E-1,1.106481E-1,3.8662247E-2,-2.7903514E-2,1.2598848E-1,-7.6388374E-2,-2.5251684E-1,-5.2415766E-2,9.809322E-2,-8.068698E-3,1.8980415E-1,-1.2339638E-1,1.4599372E-1,-1.1940485E-1,-2.3991558E-1,-6.297806E-2,7.7533536E-2,-1.9122164E-1,1.1178576E-1,3.014772E-1,-1.2158947E-1,4.9190634E-1,6.210531E-2,9.728124E-2,-2.7941352E-1,-1.9685571E-1,-2.8449124E-1,1.3434246E-1,-4.1975252E-2,3.86152E-2,-1.2454564E-1],"split_indices":[26,14,7,12,4,28,4,20,8,1,7,1,5,7,7,16,10,7,7,4,4,27,0,7,22,7,0,3,7,14,0,4,7,4,28,0,6,7,6,7,4,4,16,0,7,0,4,0,4,0,0,0,0,0,3,0,0,0,0,0,0,0,0,0,0,0,0,0,0,0,0,0,0,0,0,0,0,0,0,0,0,0,0,0,0,0,0],"split_type":[0,0,0,0,0,0,0,0,0,0,0,0,0,0,0,0,0,0,0,0,0,0,0,0,0,0,0,0,0,0,0,0,0,0,0,0,0,0,0,0,0,0,0,0,0,0,0,0,0,0,0,0,0,0,0,0,0,0,0,0,0,0,0,0,0,0,0,0,0,0,0,0,0,0,0,0,0,0,0,0,0,0,0,0,0,0,0],"sum_hessian":[8.2542377E2,7.5024585E2,7.517793E1,5.8987805E2,1.6036777E2,4.5984844E1,2.9193089E1,5.0835074E2,8.1527336E1,1.39468E2,2.0899773E1,4.0201603E1,5.7832394E0,2.2237333E1,6.9557548E0,4.025561E2,1.0579463E2,2.7480848E1,5.4046486E1,1.161562E2,2.3311808E1,1.9078384E1,1.8213881E0,3.606808E1,4.1335216E0,2.269128E0,3.5141113E0,3.3762963E0,1.8861036E1,2.2580943E0,4.6976604E0,2.7669186E2,1.2586422E2,5.65061E1,4.9288532E1,4.0283237E0,2.3452524E1,1.856882E1,3.5477665E1,9.0287346E1,2.5868845E1,1.4518087E1,8.793719E0,1.2591747E1,6.486637E0,1.5227598E0,3.4545322E1,1.9264607E0,2.2070606E0,1.1181425E0,1.1509857E0,2.0969982E0,1.2792981E0,3.1824312E0,1.5678606E1,1.0602276E0,1.1978667E0,1.53209E2,1.2348287E2,9.445557E1,3.1408653E1,5.210335E1,4.4027476E0,2.4583817E1,2.4704718E1,1.5615624E1,7.8369E0,1.403606E1,4.532762E0,2.3065418E1,1.2412247E1,7.198638E1,1.8300966E1,2.3066795E1,2.8020496E0,1.5767509E0,1.2941337E1,3.6123195E0,5.1814E0,4.2342963E0,2.252341E0,1.4573932E1,1.997139E1,1.00191E0,1.2051506E0,1.012312E1,5.5554857E0],"tree_param":{"num_deleted":"0","num_feature":"30","num_nodes":"87","size_leaf_vector":"1"}},{"base_weights":[-3.2302167E-2,9.365912E-3,-4.9207124E-1,-1.24924414E-1,7.22039E-2,-6.682666E-1,-2.3323031E-1,-1.9435298E-2,-2.4049218E-1,1.206095E-1,-1.2927929E-1,-7.1445394E-1,-3.13366E-1,-9.988738E-2,-6.369376E-1,6.5860026E-2,-4.8436278E-1,-6.931355E-1,-1.8002234E-1,1.4756083E-1,-2.1932201E-1,3.0523308E-2,-3.7700406E-1,-8.447748E-1,-4.6807653E-1,-2.1419829E-1,1.5466919E-2,7.900949E-3,-6.2304866E-1,-1.453566E-1,-2.4977802E-1,6.4139306E-3,4.3689275E-1,-6.583769E-1,1.9373411E-1,-2.6780367E-1,-3.0810365E-1,2.602868E-1,-2.2985579E-1,9.092258E-2,3.7646952E-1,-5.3992665E-1,8.518035E-2,-1.2509635E-1,3.6836427E-1,3.7345443E-2,-5.680047E-1,-2.641801E-1,-2.7736187E-1,-5.9904546E-1,1.10790245E-1,2.0909351E-1,-4.4727108E-1,-1.7129086E-1,5.2540916E-1,-2.2671305E-1,-4.261984E-2,8.948379E-2,-1.6294563E-1,1.3787192E-2,-1.7745498E-1,2.0655741E-1,-8.792813E-2,1.5566874E-1,-2.598957E-1,4.1355304E-2,-1.7879139E-1,-1.718847E-1,2.060974E-1,-1.1350364E-1,-5.066415E-3,1.1070513E-1,1.4970508E-2,-1.7409949E-1,1.283965E-1,-7.1717165E-2,-3.0148825E-1,1.1783264E-1,-2.0588689E-1,-5.223894E-3,-3.2722425E-1,3.2903507E-1,-2.2081638E-2,-2.2138938E-1,7.8071624E-2,-3.096596E-1,-1.1779756E-1,1.4130022E-1,-2.0464723E-1,-6.583638E-2,-2.618657E-1,-1.6715802E-1,1.9657072E-1,-1.8128558E-1,-1.574089E-2,6.34987E-2,-1.1768205E-1,2.904471E-1,-9.433192E-2],"categories":[],"categories_nodes":[],"categories_segments":[],"categories_sizes":[],"default_left":[0,0,0,0,0,0,0,0,0,0,0,0,0,0,0,0,0,0,0,0,0,0,0,0,0,0,0,0,0,0,0,0,0,0,0,0,0,0,0,0,0,0,0,0,0,0,0,0,0,0,0,0,0,0,0,0,0,0,0,0,0,0,0,0,0,0,0,0,0,0,0,0,0,0,0,0,0,0,0,0,0,0,0,0,0,0,0,0,0,0,0,0,0,0,0,0,0,0,0],"id":8,"left_children":[1,3,5,7,9,11,13,15,17,19,21,23,25,27,29,31,33,35,37,39,41,43,45,47,49,-1,51,53,55,57,-1,59,61,63,-1,65,-1,67,69,71,73,75,77,79,81,83,85,87,-1,89,91,-1,93,95,97,-1,-1,-1,-1,-1,-1,-1,-1,-1,-1,-1,-1,-1,-1,-1,-1,-1,-1,-1,-1,-1,-1,-1,-1,-1,-1,-1,-1,-1,-1,-1,-1,-1,-1,-1,-1,-1,-1,-1,-1,-1,-1,-1,-1],"loss_changes":[1.5357338E1,6.2178855E0,2.8820763E0,2.8591125E0,4.910271E0,4.1699028E-1,1.4713708E0,4.9451594E0,2.9410925E0,3.7443671E0,3.8791173E0,6.902695E-1,8.3883214E-1,1.2805302E0,5.420339E-1,2.3257072E0,4.2258515E0,1.5496964E0,2.2575755E0,4.8406487E0,2.9909518E0,3.2170486E0,3.0590625E0,7.224035E-1,1.1232517E0,0E0,1.7087171E0,1.9209161E0,1.4002001E-1,7.2218025E-1,0E0,2.2026112E0,2.8769665E0,4.670591E0,0E0,1.0144873E0,0E0,4.181047E0,2.8558106E0,3.435164E0,3.9089832E0,1.8347983E0,4.1459317E0,4.3524494E0,6.285861E0,2.4471786E0,1.7382765E0,1.5262679E0,0E0,1.006383E0,1.6074394E0,0E0,1.6960245E-1,1.3879552E0,2.2841144E0,0E0,0E0,0E0,0E0,0E0,0E0,0E0,0E0,0E0,0E0,0E0,0E0,0E0,0E0,0E0,0E0,0E0,0E0,0E0,0E0,0E0,0E0,0E0,0E0,0E0,0E0,0E0,0E0,0E0,0E0,0E0,0E0,0E0,0E0,0E0,0E0,0E0,0E0,0E0,0E0,0E0,0E0,0E0,0E0],"parents":[2147483647,0,0,1,1,2,2,3,3,4,4,5,5,6,6,7,7,8,8,9,9,10,10,11,11,12,12,13,13,14,14,15,15,16,16,17,17,18,18,19,19,20,20,21,21,22,22,23,23,24,24,26,26,27,27,28,28,29,29,31,31,32,32,33,33,35,35,37,37,38,38,39,39,40,40,41,41,42,42,43,43,44,44,45,45,46,46,47,47,49,49,50,50,52,52,53,53,54,54],"right_children":[2,4,6,8,10,12,14,16,18,20,22,24,26,28,30,32,34,36,38,40,42,44,46,48,50,-1,52,54,56,58,-1,60,62,64,-1,66,-1,68,70,72,74,76,78,80,82,84,86,88,-1,90,92,-1,94,96,98,-1,-1,-1,-1,-1,-1,-1,-1,-1,-1,-1,-1,-1,-1,-1,-1,-1,-1,-1,-1,-1,-1,-1,-1,-1,-1,-1,-1,-1,-1,-1,-1,-1,-1,-1,-1,-1,-1,-1,-1,-1,-1,-1,-1],"split_conditions":[1E0,1E0,9.365E1,1.3E1,1E0,1E0,7.2E1,1E0,6.5155E2,6E1,1E0,1E0,1E0,1E0,1E0,7.63E1,5.5445E2,4.13E2,4.045E1,9.6E1,6.6E1,1.9171E3,2.7E1,1.98E1,1E0,-2.1419829E-1,5.44E1,7E1,7.3182E3,1.044E2,-2.4977802E-1,7.42E1,1E0,6.105E1,1.9373411E-1,1E0,-3.0810365E-1,2.075E1,1E0,1E0,1E0,1E0,7.1E1,1.55395E3,3.4E1,5.615E1,3.8E1,1E0,-2.7736187E-1,1E0,1E0,2.0909351E-1,5.2645E3,1E0,1.0915E2,-2.2671305E-1,-4.261984E-2,8.948379E-2,-1.6294563E-1,1.3787192E-2,-1.7745498E-1,2.0655741E-1,-8.792813E-2,1.5566874E-1,-2.598957E-1,4.1355304E-2,-1.7879139E-1,-1.718847E-1,2.060974E-1,-1.1350364E-1,-5.066415E-3,1.1070513E-1,1.4970508E-2,-1.7409949E-1,1.283965E-1,-7.1717165E-2,-3.0148825E-1,1.1783264E-1,-2.0588689E-1,-5.223894E-3,-3.2722425E-1,3.2903507E-1,-2.2081638E-2,-2.2138938E-1,7.8071624E-2,-3.096596E-1,-1.1779756E-1,1.4130022E-1,-2.0464723E-1,-6.583638E-2,-2.618657E-1,-1.6715802E-1,1.9657072E-1,-1.8128558E-1,-1.574089E-2,6.34987E-2,-1.1768205E-1,2.904471E-1,-9.433192E-2],"split_indices":[26,6,7,4,3,28,4,16,8,4,16,27,24,1,14,7,8,8,7,7,4,8,4,7,1,0,7,4,8,7,0,7,3,8,0,29,0,7,28,5,24,14,4,8,4,7,4,2,0,3,16,0,8,2,7,0,0,0,0,0,0,0,0,0,0,0,0,0,0,0,0,0,0,0,0,0,0,0,0,0,0,0,0,0,0,0,0,0,0,0,0,0,0,0,0,0,0,0,0],"split_type":[0,0,0,0,0,0,0,0,0,0,0,0,0,0,0,0,0,0,0,0,0,0,0,0,0,0,0,0,0,0,0,0,0,0,0,0,0,0,0,0,0,0,0,0,0,0,0,0,0,0,0,0,0,0,0,0,0,0,0,0,0,0,0,0,0,0,0,0,0,0,0,0,0,0,0,0,0,0,0,0,0,0,0,0,0,0,0,0,0,0,0,0,0,0,0,0,0,0,0],"sum_hessian":[8.003872E2,7.3477545E2,6.56118E1,2.3390715E2,5.008683E2,3.809704E1,2.7514763E1,1.2289656E2,1.1101058E2,4.0416943E2,9.6698845E1,3.2813522E1,5.2835155E0,2.1620892E1,5.8938704E0,1.04570465E2,1.8326094E1,1.1849484E1,9.91611E1,3.7500336E2,2.9166084E1,5.931357E1,3.738528E1,1.9872969E1,1.2940554E1,1.8537415E0,3.429774E0,1.8743929E1,2.8769643E0,2.1741886E0,3.719682E0,9.100683E1,1.3563639E1,1.6242579E1,2.0835161E0,6.003551E0,5.845934E0,9.652468E0,8.950863E1,3.017415E2,7.326188E1,1.3830779E1,1.5335305E1,4.1039337E1,1.827423E1,1.2049669E1,2.5335611E1,2.921298E0,1.695167E1,1.0524517E1,2.4160366E0,1.1823003E0,2.2474737E0,1.4419914E1,4.324014E0,1.8073053E0,1.0696589E0,1.1461406E0,1.0280479E0,8.6227425E1,4.7794023E0,1.01289215E1,3.4347177E0,2.213781E0,1.4028796E1,2.9441564E0,3.0593946E0,3.1529326E0,6.499535E0,5.228022E1,3.722841E1,3.7759712E1,2.6398175E2,3.21877E0,7.0043106E1,9.316937E0,4.513842E0,1.13148155E1,4.02049E0,3.783792E1,3.2014163E0,6.3413467E0,1.1932881E1,2.174626E0,9.875043E0,5.606608E0,1.9729004E1,1.0128819E0,1.9084163E0,5.1655498E0,5.3589673E0,1.0744152E0,1.3416215E0,1.2283487E0,1.019125E0,5.291739E0,9.128175E0,2.7313426E0,1.5926718E0],"tree_param":{"num_deleted":"0","num_feature":"30","num_nodes":"99","size_leaf_vector":"1"}},{"base_weights":[-2.9412217E-2,3.0677838E-3,-4.259329E-1,3.6461607E-2,-1.7060289E-1,-6.09853E-1,-2.0643616E-1,7.340303E-2,-1.4263283E-1,-4.0800676E-1,-3.842914E-2,-6.6367E-1,-2.5022492E-1,-1.2787835E-1,-2.2187652E-1,8.1314325E-2,-3.1986856E-1,1.22361235E-1,-4.0326777E-1,-5.281826E-1,-1.10427015E-1,-1.9449586E-1,1.192384E-1,-5.096535E-1,-2.759152E-1,-1.971148E-1,5.532056E-2,-2.1749358E-1,-5.5656422E-2,3.7278924E-2,2.8061554E-1,3.0132237E-1,-7.438441E-1,-4.928424E-1,1.7961937E-1,-2.5503677E-1,-7.076404E-1,-3.5278592E-1,2.0078282E-1,-6.156371E-1,-6.1000936E-2,2.675866E-1,-1.3504162E-1,-6.154821E-1,2.0147859E-1,1.6178437E-1,-1.068393E-1,2.0861855E-1,-1.6401911E-1,-1.0956089E-3,5.955913E-2,2.2403575E-1,4.292895E-2,-1.5785623E-1,1.04161076E-1,-2.8256324E-1,-7.258095E-2,-7.152255E-2,-2.396196E-1,-1.637635E-1,1.6053231E-1,-1.5335515E-1,7.265135E-2,-2.5834104E-1,-1.2049427E-1,-2.388183E-1,5.270669E-3,1.2214721E-1,-1.07022904E-1,-2.8948385E-2,-2.422363E-1,2.0562005E-1,-3.460434E-2,4.041141E-2,3.646666E-1,-2.6995414E-1,4.0865287E-2,-1.1661589E-1,-2.6437062E-1,2.493211E-1,-1.6227244E-1,-1.3283616E-1,1.542869E-1,-1.5396778E-1,3.1422894E-2],"categories":[],"categories_nodes":[],"categories_segments":[],"categories_sizes":[],"default_left":[0,0,0,0,0,0,0,0,0,0,0,0,0,0,0,0,0,0,0,0,0,0,0,0,0,0,0,0,0,0,0,0,0,0,0,0,0,0,0,0,0,0,0,0,0,0,0,0,0,0,0,0,0,0,0,0,0,0,0,0,0,0,0,0,0,0,0,0,0,0,0,0,0,0,0,0,0,0,0,0,0,0,0,0,0],"id":9,"left_children":[1,3,5,7,9,11,13,15,17,19,21,23,25,27,-1,29,-1,31,33,35,37,39,41,43,-1,-1,45,-1,47,49,51,53,55,57,59,61,63,65,67,69,71,73,75,77,79,-1,-1,81,83,-1,-1,-1,-1,-1,-1,-1,-1,-1,-1,-1,-1,-1,-1,-1,-1,-1,-1,-1,-1,-1,-1,-1,-1,-1,-1,-1,-1,-1,-1,-1,-1,-1,-1,-1,-1],"loss_changes":[1.0137255E1,4.2307205E0,2.279852E0,4.057948E0,3.6760228E0,4.5156574E-1,1.1066494E0,4.6651917E0,7.2979364E0,1.4426694E0,1.9099946E0,6.020603E-1,7.5223047E-1,1.0897586E0,0E0,4.4237566E0,0E0,8.410173E0,2.8632374E0,1.2721052E0,1.0768757E0,2.150254E0,1.4983752E0,1.5687747E0,0E0,0E0,1.0306382E0,0E0,7.3473793E-1,2.7395968E0,5.7447934E0,1.871357E0,6.99512E-1,3.415493E0,2.3068113E0,1.8193413E0,4.6764088E-1,1.3045846E0,8.9048904E-1,8.4384465E-1,1.3227096E0,2.96235E0,3.2234945E0,6.793418E-1,1.9640107E0,0E0,0E0,1.7317569E0,1.7344896E0,0E0,0E0,0E0,0E0,0E0,0E0,0E0,0E0,0E0,0E0,0E0,0E0,0E0,0E0,0E0,0E0,0E0,0E0,0E0,0E0,0E0,0E0,0E0,0E0,0E0,0E0,0E0,0E0,0E0,0E0,0E0,0E0,0E0,0E0,0E0,0E0],"parents":[2147483647,0,0,1,1,2,2,3,3,4,4,5,5,6,6,7,7,8,8,9,9,10,10,11,11,12,12,13,13,15,15,17,17,18,18,19,19,20,20,21,21,22,22,23,23,26,26,28,28,29,29,30,30,31,31,32,32,33,33,34,34,35,35,36,36,37,37,38,38,39,39,40,40,41,41,42,42,43,43,44,44,47,47,48,48],"right_children":[2,4,6,8,10,12,14,16,18,20,22,24,26,28,-1,30,-1,32,34,36,38,40,42,44,-1,-1,46,-1,48,50,52,54,56,58,60,62,64,66,68,70,72,74,76,78,80,-1,-1,82,84,-1,-1,-1,-1,-1,-1,-1,-1,-1,-1,-1,-1,-1,-1,-1,-1,-1,-1,-1,-1,-1,-1,-1,-1,-1,-1,-1,-1,-1,-1,-1,-1,-1,-1,-1,-1],"split_conditions":[1E0,1E0,9.185E1,1E0,1E0,1E0,7.8812E3,1.0705E2,1E0,1E0,1E0,1E0,1E0,4.52405E3,-2.2187652E-1,9.32E1,-3.1986856E-1,4.4E1,3.9541E3,2.6E1,8.24E1,8.015E1,1E0,4.4691E3,-2.759152E-1,-1.971148E-1,5.44E1,-2.1749358E-1,6.2E1,1E0,1.23325E3,5.525E1,5.42685E3,1.16075E3,9.945E1,6.6295E2,1E0,1E0,5.8126E3,2.2E1,8.325E1,1E0,3.9E1,6E1,5.1961E3,1.6178437E-1,-1.068393E-1,1E0,1E0,-1.0956089E-3,5.955913E-2,2.2403575E-1,4.292895E-2,-1.5785623E-1,1.04161076E-1,-2.8256324E-1,-7.258095E-2,-7.152255E-2,-2.396196E-1,-1.637635E-1,1.6053231E-1,-1.5335515E-1,7.265135E-2,-2.5834104E-1,-1.2049427E-1,-2.388183E-1,5.270669E-3,1.2214721E-1,-1.07022904E-1,-2.8948385E-2,-2.422363E-1,2.0562005E-1,-3.460434E-2,4.041141E-2,3.646666E-1,-2.6995414E-1,4.0865287E-2,-1.1661589E-1,-2.6437062E-1,2.493211E-1,-1.6227244E-1,-1.3283616E-1,1.542869E-1,-1.5396778E-1,3.1422894E-2],"split_indices":[26,25,7,20,24,28,8,7,0,28,0,24,24,8,0,7,0,4,8,4,7,7,14,8,0,0,7,0,4,1,8,8,8,8,7,8,16,0,8,4,7,29,4,4,8,0,0,6,0,0,0,0,0,0,0,0,0,0,0,0,0,0,0,0,0,0,0,0,0,0,0,0,0,0,0,0,0,0,0,0,0,0,0,0,0],"split_type":[0,0,0,0,0,0,0,0,0,0,0,0,0,0,0,0,0,0,0,0,0,0,0,0,0,0,0,0,0,0,0,0,0,0,0,0,0,0,0,0,0,0,0,0,0,0,0,0,0,0,0,0,0,0,0,0,0,0,0,0,0,0,0,0,0,0,0,0,0,0,0,0,0,0,0,0,0,0,0,0,0,0,0,0,0],"sum_hessian":[7.860141E2,7.2742145E2,5.8592644E1,6.1077094E2,1.1665048E2,3.0912289E1,2.7680355E1,5.0682037E2,1.0395059E2,4.0971905E1,7.567857E1,2.6153135E1,4.7591534E0,2.5206182E1,2.4741743E0,5.0424854E2,2.5718355E0,5.180732E1,5.2143272E1,2.8633501E1,1.2338404E1,3.7914974E1,3.77636E1,1.8197512E1,7.9556246E0,1.5478393E0,3.2113142E0,1.744575E0,2.3461607E1,4.1396942E2,9.027909E1,4.347696E1,8.330361E0,4.533148E1,6.811792E0,1.2313201E1,1.6320301E1,6.8613997E0,5.477004E0,8.256429E0,2.9658546E1,2.3816568E1,1.3947032E1,1.5957297E1,2.240214E0,1.3328729E0,1.8784413E0,6.55357E0,1.6908037E1,3.3094263E2,8.302681E1,1.955613E1,7.072296E1,1.7340102E0,4.174295E1,5.344882E0,2.985479E0,2.5718578E1,1.9612902E1,2.0639699E0,4.7478223E0,8.108057E0,4.205144E0,9.660186E0,6.6601143E0,2.6000109E0,4.2613893E0,4.1941853E0,1.2828187E0,2.6331122E0,5.623317E0,1.2248495E0,2.8433697E1,2.1890198E1,1.9263694E0,3.044861E0,1.0902171E1,9.939127E0,6.0181704E0,1.1475557E0,1.0926585E0,1.9498131E0,4.603757E0,6.9579163E0,9.950121E0],"tree_param":{"num_deleted":"0","num_feature":"30","num_nodes":"85","size_leaf_vector":"1"}},{"base_weights":[-2.6526144E-2,-9.6412376E-4,-3.6562166E-1,1.6258782E-1,-2.6500078E-2,-5.93523E-1,-2.0817621E-1,2.6585214E-2,3.593345E-1,-2.7863032E-1,-4.127392E-3,-4.3485862E-1,-2.6799926E-1,-1.8623058E-2,-5.0464964E-1,-2.3620002E-2,3.1615725E-1,4.2242852E-1,-1.4949447E-1,-4.5817163E-2,-4.6874884E-1,3.4427833E-2,-1.1947414E-1,-5.930871E-1,3.7197107E-1,3.0251196E-1,-1.42936E-1,2.0270925E-2,-7.469054E-1,-1.1644165E-1,4.8707783E-1,3.613949E-1,2.5993824E-1,8.012605E-2,-4.3889374E-1,3.3741322E-1,-2.5433344E-1,-2.891115E-1,-8.790986E-1,-6.809942E-2,1.3421847E-1,-1.7887115E-1,1.10268146E-1,-7.256673E-1,-2.0585153E-1,2.4033493E-1,-6.590546E-2,-7.062704E-1,4.9168263E-2,1.4817744E-1,-4.5558655E-1,-8.181377E-1,-6.983014E-2,-1.9293055E-2,-3.207404E-1,-1.3066383E-1,2.184481E-1,1.2808572E-1,-2.5156274E-1,-2.7903935E-1,7.039084E-2,-1.613704E-1,2.4043721E-1,7.0316724E-2,-1.1116802E-1,-1.11660555E-1,1.3347329E-1,-2.9685438E-1,-2.4519673E-2,-6.718153E-3,-1.0077021E-1,1.7403579E-1,2.347682E-2,-1.2191083E-2,-1.0550955E-1,-8.4162354E-2,1.1314969E-1,-3.8672686E-2,-2.3890778E-1,1.690217E-1,-2.1612756E-1,-2.5346097E-1,-2.5427664E-2,2.487411E-1,-2.538415E-2,-1.7615873E-1,-2.9339027E-2,-8.124637E-2,-2.6621583E-1],"categories":[],"categories_nodes":[],"categories_segments":[],"categories_sizes":[],"default_left":[0,0,0,0,0,0,0,0,0,0,0,0,0,0,0,0,0,0,0,0,0,0,0,0,0,0,0,0,0,0,0,0,0,0,0,0,0,0,0,0,0,0,0,0,0,0,0,0,0,0,0,0,0,0,0,0,0,0,0,0,0,0,0,0,0,0,0,0,0,0,0,0,0,0,0,0,0,0,0,0,0,0,0,0,0,0,0,0,0],"id":10,"left_children":[1,3,5,7,9,11,13,15,17,19,21,23,-1,25,27,29,-1,31,33,35,37,39,41,43,45,-1,47,49,51,53,55,57,-1,-1,59,61,63,65,67,69,71,73,75,77,79,-1,-1,81,83,-1,85,87,-1,-1,-1,-1,-1,-1,-1,-1,-1,-1,-1,-1,-1,-1,-1,-1,-1,-1,-1,-1,-1,-1,-1,-1,-1,-1,-1,-1,-1,-1,-1,-1,-1,-1,-1,-1,-1],"loss_changes":[6.6975007E0,3.0094755E0,1.819941E0,2.5943787E0,3.514417E0,6.385374E-1,1.8773521E0,3.0481484E0,1.3375111E0,2.2261634E0,2.5543957E0,2.271752E0,0E0,2.8913136E0,1.6753523E0,2.7523813E0,0E0,6.51032E-1,7.342026E-1,1.998484E0,1.7984071E0,4.4144225E0,1.9831748E0,5.6003094E-1,1.0008917E0,0E0,2.206728E0,1.3736694E0,1.376853E-1,2.3612194E0,2.3054276E0,2.9534287E0,0E0,0E0,1.3425611E0,4.0315256E0,9.9974895E-1,1.4376576E0,6.224117E-1,2.6000504E0,5.407831E0,2.7261622E0,3.2533932E0,3.148842E-1,2.3535445E0,0E0,0E0,3.7364507E-1,1.7294165E0,0E0,8.677685E-2,4.2851448E-2,0E0,0E0,0E0,0E0,0E0,0E0,0E0,0E0,0E0,0E0,0E0,0E0,0E0,0E0,0E0,0E0,0E0,0E0,0E0,0E0,0E0,0E0,0E0,0E0,0E0,0E0,0E0,0E0,0E0,0E0,0E0,0E0,0E0,0E0,0E0,0E0,0E0],"parents":[2147483647,0,0,1,1,2,2,3,3,4,4,5,5,6,6,7,7,8,8,9,9,10,10,11,11,13,13,14,14,15,15,17,17,18,18,19,19,20,20,21,21,22,22,23,23,24,24,26,26,27,27,28,28,29,29,30,30,31,31,34,34,35,35,36,36,37,37,38,38,39,39,40,40,41,41,42,42,43,43,44,44,47,47,48,48,50,50,51,51],"right_children":[2,4,6,8,10,12,14,16,18,20,22,24,-1,26,28,30,-1,32,34,36,38,40,42,44,46,-1,48,50,52,54,56,58,-1,-1,60,62,64,66,68,70,72,74,76,78,80,-1,-1,82,84,-1,86,88,-1,-1,-1,-1,-1,-1,-1,-1,-1,-1,-1,-1,-1,-1,-1,-1,-1,-1,-1,-1,-1,-1,-1,-1,-1,-1,-1,-1,-1,-1,-1,-1,-1,-1,-1,-1,-1],"split_conditions":[1E0,2E0,4.4691E3,5.025E1,2.525E1,5.44E1,7.1E1,1E0,1E0,1E0,1E0,4.625E1,-2.6799926E-1,7.985E1,1E0,1E0,3.1615725E-1,9.025E1,6.02E1,1.99E1,3.822E2,1E0,1E0,1E0,1E0,3.0251196E-1,9.52E1,1E0,1E0,1E0,1.99E1,8.91E1,2.5993824E-1,8.012605E-2,7.565E1,1.94E1,1E0,3.225E2,1E0,2.5702E3,4.202E2,3.1E1,2.62555E3,1.94E1,1.33665E3,2.4033493E-1,-6.590546E-2,6.9E1,9.865E1,1.4817744E-1,1.0705E2,1E0,-6.983014E-2,-1.9293055E-2,-3.207404E-1,-1.3066383E-1,2.184481E-1,1.2808572E-1,-2.5156274E-1,-2.7903935E-1,7.039084E-2,-1.613704E-1,2.4043721E-1,7.0316724E-2,-1.1116802E-1,-1.11660555E-1,1.3347329E-1,-2.9685438E-1,-2.4519673E-2,-6.718153E-3,-1.0077021E-1,1.7403579E-1,2.347682E-2,-1.2191083E-2,-1.0550955E-1,-8.4162354E-2,1.1314969E-1,-3.8672686E-2,-2.3890778E-1,1.690217E-1,-2.1612756E-1,-2.5346097E-1,-2.5427664E-2,2.487411E-1,-2.538415E-2,-1.7615873E-1,-2.9339027E-2,-8.124637E-2,-2.6621583E-1],"split_indices":[26,4,8,7,7,7,4,24,20,0,14,7,0,7,14,2,0,7,7,7,8,10,27,10,6,0,7,20,1,20,7,7,0,0,7,7,5,8,10,8,8,4,8,7,8,0,0,4,7,0,7,2,0,0,0,0,0,0,0,0,0,0,0,0,0,0,0,0,0,0,0,0,0,0,0,0,0,0,0,0,0,0,0,0,0,0,0,0,0],"split_type":[0,0,0,0,0,0,0,0,0,0,0,0,0,0,0,0,0,0,0,0,0,0,0,0,0,0,0,0,0,0,0,0,0,0,0,0,0,0,0,0,0,0,0,0,0,0,0,0,0,0,0,0,0,0,0,0,0,0,0,0,0,0,0,0,0,0,0,0,0,0,0,0,0,0,0,0,0,0,0,0,0,0,0,0,0,0,0,0,0],"sum_hessian":[7.7171326E2,7.185497E2,5.316355E1,9.6313934E1,6.222357E2,2.0589975E1,3.2573578E1,5.7619293E1,3.8694645E1,4.9780262E1,5.724555E2,1.5066785E1,5.5231915E0,2.0518005E1,1.2055571E1,5.5865997E1,1.7532959E0,3.4576954E1,4.1176887E0,2.293535E1,2.6844913E1,4.2957083E2,1.4288466E2,1.2817955E1,2.2488298E0,1.4475639E0,1.9070442E1,4.096211E0,7.959359E0,4.7927036E1,7.938962E0,3.1993275E1,2.5836809E0,1.7195497E0,2.3981392E0,7.864002E0,1.5071348E1,1.9856815E1,6.988097E0,2.120368E2,2.1753403E2,1.1370823E2,2.9176426E1,8.897645E0,3.9203098E0,1.0982283E0,1.1506014E0,4.1688986E0,1.4901544E1,2.033831E0,2.0623803E0,6.471476E0,1.4878831E0,4.6452644E1,1.4743911E0,1.4775904E0,6.4613714E0,3.0946716E1,1.046557E0,1.166428E0,1.2317113E0,2.6694767E0,5.1945252E0,2.7002747E0,1.2371073E1,1.8280424E1,1.5763909E0,5.9264493E0,1.0616481E0,1.8205E2,2.9986807E1,2.3212643E1,1.9432138E2,6.38631E1,4.984513E1,1.1819052E1,1.7357374E1,1.24143E0,7.656215E0,1.5332676E0,2.3870423E0,3.1148875E0,1.0540112E0,1.4207428E0,1.3480801E1,1.0390145E0,1.0233657E0,1.2783874E0,5.1930885E0],"tree_param":{"num_deleted":"0","num_feature":"30","num_nodes":"89","size_leaf_vector":"1"}},{"base_weights":[-2.1700602E-2,-9.282251E-3,-4.936014E-1,2.4618026E-2,-1.2925538E-1,-6.625264E-1,-1.4261287E-1,-3.4472186E-2,1.0840983E-1,-9.863159E-2,-4.9847493E-1,-2.830966E-2,-2.2385658E-1,1.625942E-1,-5.4052633E-1,-3.3317518E-3,-2.9142776E-1,3.1626764E-1,1.3382866E-2,-2.1722834E-1,4.5218114E-2,-6.151452E-1,4.810787E-2,1.8298718E-1,-7.165489E-2,-2.0495392E-1,-3.198087E-2,-2.5617393E-2,1.1413696E0,5.575664E-2,-6.2875193E-1,3.4765217E-1,-2.2834279E-1,-3.49573E-2,5.0907546E-1,1.7060857E-1,-2.8663164E-1,6.720567E-1,-2.9776761E-2,3.8485684E-2,-7.7918017E-1,-1.9149275E-1,-4.11546E-3,-7.240961E-2,4.528356E-1,3.1785685E-1,-4.5350533E-2,-2.6063696E-1,7.5120805E-4,4.389643E-2,1.7432806E-1,-3.947853E-4,-1.9033332E-1,-1.0438418E-1,3.2262644E-1,-4.8353028E-2,1.4135917E-1,-9.768289E-2,9.435234E-2,2.8189108E-2,3.8338542E-1,-2.471918E-2,1.8932638E-1,4.6784785E-2,-3.0542143E-2,-2.8582639E-1,-8.433681E-2],"categories":[],"categories_nodes":[],"categories_segments":[],"categories_sizes":[],"default_left":[0,0,0,0,0,0,0,0,0,0,0,0,0,0,0,0,0,0,0,0,0,0,0,0,0,0,0,0,0,0,0,0,0,0,0,0,0,0,0,0,0,0,0,0,0,0,0,0,0,0,0,0,0,0,0,0,0,0,0,0,0,0,0,0,0,0,0],"id":11,"left_children":[1,3,5,7,9,11,13,15,17,19,21,-1,-1,23,25,27,29,31,33,35,37,39,-1,-1,-1,-1,-1,41,43,45,47,49,-1,51,53,55,57,59,61,63,65,-1,-1,-1,-1,-1,-1,-1,-1,-1,-1,-1,-1,-1,-1,-1,-1,-1,-1,-1,-1,-1,-1,-1,-1,-1,-1],"loss_changes":[4.4397883E0,3.0127246E0,1.0573401E0,2.8645048E0,1.7959461E0,5.399399E-1,1.0092044E0,2.7163663E0,4.7202587E0,2.6018147E0,1.040376E0,0E0,0E0,1.0547771E0,1.4532387E-1,7.781833E0,4.33259E0,2.8006277E0,3.9760642E0,2.2950957E0,3.2864597E0,1.1681261E0,0E0,0E0,0E0,0E0,0E0,2.171653E0,3.3292441E0,4.106953E0,2.8347044E0,3.3723373E0,0E0,3.0535018E0,7.5296726E0,1.4016969E0,1.7696552E0,2.4954224E0,2.24343E0,6.66738E-2,4.6980906E-1,0E0,0E0,0E0,0E0,0E0,0E0,0E0,0E0,0E0,0E0,0E0,0E0,0E0,0E0,0E0,0E0,0E0,0E0,0E0,0E0,0E0,0E0,0E0,0E0,0E0,0E0],"parents":[2147483647,0,0,1,1,2,2,3,3,4,4,5,5,6,6,7,7,8,8,9,9,10,10,13,13,14,14,15,15,16,16,17,17,18,18,19,19,20,20,21,21,27,27,28,28,29,29,30,30,31,31,33,33,34,34,35,35,36,36,37,37,38,38,39,39,40,40],"right_children":[2,4,6,8,10,12,14,16,18,20,22,-1,-1,24,26,28,30,32,34,36,38,40,-1,-1,-1,-1,-1,42,44,46,48,50,-1,52,54,56,58,60,62,64,66,-1,-1,-1,-1,-1,-1,-1,-1,-1,-1,-1,-1,-1,-1,-1,-1,-1,-1,-1,-1,-1,-1,-1,-1,-1,-1],"split_conditions":[7.1E1,1E0,7.5119E3,1E0,1.046E2,1E0,1.0955E2,8.565E1,1.2501E3,1E0,1E0,-2.830966E-2,-2.2385658E-1,7.2E1,1.1435E2,8.51E1,1E0,1.051E2,6.85905E3,5.12E1,7.42E1,1E0,4.810787E-2,1.8298718E-1,-7.165489E-2,-2.0495392E-1,-3.198087E-2,1.93E1,1E1,6E0,4.1039E3,8.475E1,-2.2834279E-1,6.44185E3,1E0,1E0,7.935E1,4.806E2,6.1712E3,5.7E1,1E0,-1.9149275E-1,-4.11546E-3,-7.240961E-2,4.528356E-1,3.1785685E-1,-4.5350533E-2,-2.6063696E-1,7.5120805E-4,4.389643E-2,1.7432806E-1,-3.947853E-4,-1.9033332E-1,-1.0438418E-1,3.2262644E-1,-4.8353028E-2,1.4135917E-1,-9.768289E-2,9.435234E-2,2.8189108E-2,3.8338542E-1,-2.471918E-2,1.8932638E-1,4.6784785E-2,-3.0542143E-2,-2.8582639E-1,-8.433681E-2],"split_indices":[4,3,8,22,7,5,7,7,8,11,1,0,0,4,7,7,0,7,8,8,7,16,0,0,0,0,0,7,4,4,8,7,0,8,0,2,7,8,8,4,26,0,0,0,0,0,0,0,0,0,0,0,0,0,0,0,0,0,0,0,0,0,0,0,0,0,0],"split_type":[0,0,0,0,0,0,0,0,0,0,0,0,0,0,0,0,0,0,0,0,0,0,0,0,0,0,0,0,0,0,0,0,0,0,0,0,0,0,0,0,0,0,0,0,0,0,0,0,0,0,0,0,0,0,0,0,0,0,0,0,0,0,0,0,0,0,0],"sum_hessian":[7.573952E2,7.389685E2,1.8426725E1,5.76784E2,1.621845E2,1.184049E1,6.5862346E0,3.3859467E2,2.3818933E2,1.5093295E2,1.1251541E1,1.7928619E0,1.0047628E1,4.061993E0,2.5242417E0,3.028993E2,3.569539E1,7.3998985E1,1.6419034E2,8.244837E1,6.848458E1,9.615148E0,1.6363934E0,1.6754677E0,2.3865252E0,1.4674042E0,1.0568376E0,2.9807385E2,4.8254356E0,1.8001944E1,1.7693443E1,7.25626E1,1.4363923E0,1.5044804E2,1.3742285E1,1.2293283E1,7.015508E1,6.467248E0,6.2017338E1,2.0824766E0,7.532671E0,4.6757455E0,2.933981E2,1.0868491E0,3.7385867E0,2.3725753E0,1.5629369E1,1.25463505E1,5.1470933E0,3.9834373E1,3.272822E1,1.4340292E2,7.045131E0,5.621373E0,8.120912E0,6.0638695E0,6.2294145E0,6.6313644E1,3.8414412E0,3.9006565E0,2.5665915E0,5.825424E1,3.7631004E0,1.0727184E0,1.0097581E0,4.9089484E0,2.6237226E0],"tree_param":{"num_deleted":"0","num_feature":"30","num_nodes":"67","size_leaf_vector":"1"}},{"base_weights":[-1.6028503E-2,2.0720214E-3,-2.8074333E-1,1.9357638E-2,-1.5040068E-1,-5.097987E-1,-1.3094012E-1,-2.0281046E-3,2.8591055E-1,-4.9080107E-1,-3.0406503E-2,-7.886103E-2,-7.0086294E-1,1.3466229E-1,-1.8167682E-1,2.1661818E-2,-3.8333723E-1,6.816882E-1,3.6805056E-2,4.611922E-1,-7.196041E-1,-5.8579758E-2,2.0532393E-1,-2.1062818E-1,3.5952795E-1,-2.1160538E-1,-8.496547E-1,-2.4953231E-1,-4.2114872E-2,-9.110549E-3,2.233798E-1,-8.0888784E-1,-2.463742E-1,1.0967673E0,3.3166218E-1,7.6422286E-1,-2.02224E-1,3.5875303E-1,-9.9328384E-2,-7.5640625E-1,-2.882832E-2,-1.0323046E-3,-7.069972E-1,7.515542E-1,-1.5722725E-1,6.8490274E-2,-1.9323145E-1,-2.7733463E-1,-3.73414E-2,5.512578E-1,-1.5337813E-1,9.975802E-3,-9.128109E-2,2.2828689E-2,2.066806E-1,-4.1677453E-2,-2.9442242E-1,-9.316852E-2,1.869501E-1,1.4183024E-1,4.7887778E-1,2.0983313E-1,1.3816865E-2,-5.330688E-3,3.460312E-1,-3.293118E-1,-5.3059426E-3,-2.8700188E-1,-1.4180969E-1,3.3394504E-2,-1.01004496E-1,-2.55711E-1,-3.7447196E-2,3.7191364E-1,-5.6964252E-2,-6.886085E-2,2.9050606E-1,-1.8783739E-1,6.2918807E-3],"categories":[],"categories_nodes":[],"categories_segments":[],"categories_sizes":[],"default_left":[0,0,0,0,0,0,0,0,0,0,0,0,0,0,0,0,0,0,0,0,0,0,0,0,0,0,0,0,0,0,0,0,0,0,0,0,0,0,0,0,0,0,0,0,0,0,0,0,0,0,0,0,0,0,0,0,0,0,0,0,0,0,0,0,0,0,0,0,0,0,0,0,0,0,0,0,0,0,0],"id":12,"left_children":[1,3,5,7,9,11,13,15,17,19,21,23,25,-1,27,29,31,33,35,37,39,41,-1,-1,43,45,47,-1,49,51,53,55,57,59,61,63,65,-1,-1,67,-1,69,71,73,-1,-1,-1,-1,-1,75,77,-1,-1,-1,-1,-1,-1,-1,-1,-1,-1,-1,-1,-1,-1,-1,-1,-1,-1,-1,-1,-1,-1,-1,-1,-1,-1,-1,-1],"loss_changes":[3.586143E0,1.8515632E0,1.5768766E0,3.596891E0,2.9070415E0,1.4757538E0,9.730908E-1,5.2928967E0,4.5952477E0,4.3786526E0,1.1267295E0,2.1208608E0,7.4881554E-1,0E0,2.557949E0,3.4269123E0,1.7983327E0,2.2580547E0,5.339193E0,2.84604E0,2.79984E-1,1.9707049E0,0E0,0E0,2.0136592E0,9.6636754E-1,3.9747858E-1,0E0,1.70745E0,6.0079746E0,4.957787E0,7.7757263E-1,1.7209549E0,1.683363E0,1.1467015E0,2.3288312E0,3.8200471E0,0E0,0E0,3.6407852E-1,0E0,1.9051181E0,2.579651E-1,1.9127498E0,0E0,0E0,0E0,0E0,0E0,1.5572304E0,1.7838062E0,0E0,0E0,0E0,0E0,0E0,0E0,0E0,0E0,0E0,0E0,0E0,0E0,0E0,0E0,0E0,0E0,0E0,0E0,0E0,0E0,0E0,0E0,0E0,0E0,0E0,0E0,0E0,0E0],"parents":[2147483647,0,0,1,1,2,2,3,3,4,4,5,5,6,6,7,7,8,8,9,9,10,10,11,11,12,12,14,14,15,15,16,16,17,17,18,18,19,19,20,20,21,21,24,24,25,25,26,26,28,28,29,29,30,30,31,31,32,32,33,33,34,34,35,35,36,36,39,39,41,41,42,42,43,43,49,49,50,50],"right_children":[2,4,6,8,10,12,14,16,18,20,22,24,26,-1,28,30,32,34,36,38,40,42,-1,-1,44,46,48,-1,50,52,54,56,58,60,62,64,66,-1,-1,68,-1,70,72,74,-1,-1,-1,-1,-1,76,78,-1,-1,-1,-1,-1,-1,-1,-1,-1,-1,-1,-1,-1,-1,-1,-1,-1,-1,-1,-1,-1,-1,-1,-1,-1,-1,-1,-1],"split_conditions":[1E0,5.5E1,1E0,4.0422E3,5.1213E3,1E0,1.33665E3,3.3638E3,1E0,2.6563E3,7.9988E3,4.6E1,1E0,1.3466229E-1,4.74785E3,2.24805E3,1E0,4.52405E3,4.4E1,1E0,6.9E1,7.1E1,2.0532393E-1,-2.1062818E-1,6.5E1,1E0,1.061E2,-2.4953231E-1,5.3302E3,2.3E1,1E0,8.045E1,1E0,4.3268E3,1E0,1.046E2,4.6E1,3.5875303E-1,-9.9328384E-2,1E0,-2.882832E-2,1.061E2,1E0,1E0,-1.5722725E-1,6.8490274E-2,-1.9323145E-1,-2.7733463E-1,-3.73414E-2,1E0,6.3839E3,9.975802E-3,-9.128109E-2,2.2828689E-2,2.066806E-1,-4.1677453E-2,-2.9442242E-1,-9.316852E-2,1.869501E-1,1.4183024E-1,4.7887778E-1,2.0983313E-1,1.3816865E-2,-5.330688E-3,3.460312E-1,-3.293118E-1,-5.3059426E-3,-2.8700188E-1,-1.4180969E-1,3.3394504E-2,-1.01004496E-1,-2.55711E-1,-3.7447196E-2,3.7191364E-1,-5.6964252E-2,-6.886085E-2,2.9050606E-1,-1.8783739E-1,6.2918807E-3],"split_indices":[26,4,10,8,8,2,8,8,18,8,8,4,5,0,8,8,6,8,4,25,4,4,0,0,4,3,7,0,8,4,27,7,29,8,2,7,4,0,0,16,0,7,3,24,0,0,0,0,0,2,8,0,0,0,0,0,0,0,0,0,0,0,0,0,0,0,0,0,0,0,0,0,0,0,0,0,0,0,0],"split_type":[0,0,0,0,0,0,0,0,0,0,0,0,0,0,0,0,0,0,0,0,0,0,0,0,0,0,0,0,0,0,0,0,0,0,0,0,0,0,0,0,0,0,0,0,0,0,0,0,0,0,0,0,0,0,0,0,0,0,0,0,0,0,0,0,0,0,0,0,0,0,0,0,0,0,0,0,0,0,0],"sum_hessian":[7.4732074E2,7.0042E2,4.6900757E1,6.29884E2,7.053602E1,1.759466E1,2.9306097E1,5.8401996E2,4.5863976E1,1.7578629E1,5.295739E1,5.838625E0,1.1756035E1,1.7266754E0,2.7579422E1,5.5074646E2,3.3273514E1,1.7045547E1,2.8818428E1,3.2094057E0,1.4369223E1,5.1832558E1,1.1248319E0,2.1626194E0,3.6760056E0,3.3063242E0,8.449711E0,3.997705E0,2.3581717E1,4.7867822E2,7.206822E1,6.9070606E0,2.6366453E1,6.822126E0,1.0223421E1,6.5841675E0,2.2234262E1,1.4009824E0,1.8084232E0,1.3367098E1,1.0021244E0,4.852732E1,3.3052378E0,2.6498377E0,1.026168E0,1.87319E0,1.4331341E0,7.4106145E0,1.039096E0,3.0991664E0,2.048255E1,4.193743E2,5.930395E1,5.5631855E1,1.6436365E1,1.7840742E0,5.1229863E0,2.5152592E1,1.2138623E0,3.898432E0,2.9236941E0,3.8354454E0,6.3879757E0,2.5051932E0,4.078974E0,2.953546E0,1.9280716E1,6.4453416E0,6.9217567E0,3.685853E1,1.1668792E1,2.2734294E0,1.0318085E0,1.5363625E0,1.1134751E0,1.2356801E0,1.8634862E0,4.820573E0,1.5661978E1],"tree_param":{"num_deleted":"0","num_feature":"30","num_nodes":"79","size_leaf_vector":"1"}},{"base_weights":[-1.3681459E-2,1.7996568E-2,-1.1741667E-1,-8.956347E-2,6.868745E-2,-4.9418535E-2,-2.5680128E-1,-4.7004256E-2,-5.4656535E-1,-2.7867986E-4,1.5869923E-1,1.178212E-1,-2.2194801E-1,-5.0334674E-1,-3.758702E-2,-7.0961446E-2,5.471668E-1,-9.4835097E-1,-1.20528504E-1,-1.0936483E-2,2.9299814E-1,-1.630361E-2,2.7690962E-1,3.539197E-1,7.780361E-4,-3.1277707E-1,5.5070674E-1,-6.2257266E-1,6.0432702E-2,3.8374448E-1,-2.8313744E-1,-1.5317727E-2,-3.3305708E-1,4.168971E-1,-1.0690704E-1,-3.1471455E-1,-5.4967243E-2,-2.8842714E-1,2.8887933E-1,1.1767847E-2,-4.7479117E-1,3.8169244E-1,-1.6583546E-1,6.7716295E-1,1.465472E-1,3.7954338E-2,7.914961E-1,5.4994017E-1,-1.03651606E-1,-2.1584639E-1,-7.6033163E-1,3.6569843E-1,1.5971696E-1,-3.7748057E-1,-8.080393E-1,6.757915E-1,-1.8369079E-1,8.9008376E-2,9.272983E-1,-4.2171675E-1,1.1471647E-1,1.3642202E-3,-2.2529404E-1,-1.6744812E-1,7.923634E-2,-2.1662346E-1,1.424715E-1,-3.1996284E-2,2.2485475E-1,-2.0759469E-2,3.5866186E-2,-2.945397E-1,-4.3403078E-2,2.364022E-1,-2.3186807E-2,2.3859214E-2,-1.21174365E-1,2.4248727E-1,6.4518474E-2,-2.4118619E-1,5.5234656E-2,-1.0503863E-1,3.5349542E-1,3.7389645E-1,-1.5528646E-1,-1.49071E-2,3.8330257E-1,-1.5467294E-1,4.3630794E-2,-8.739737E-2,1.3145526E-1,-3.3206064E-1,-8.063054E-2,-7.059991E-2,2.2499318E-1,-2.27275E-1,-1.1670503E-3,-2.2812054E-2,-2.617397E-1,-3.0148573E-2,3.2467592E-1,-1.4513135E-1,9.8562874E-2,1.2476705E-1,3.6428756E-1,6.734877E-2,-1.8039781E-1,-1.8898697E-1,1.3220349E-1],"categories":[],"categories_nodes":[],"categories_segments":[],"categories_sizes":[],"default_left":[0,0,0,0,0,0,0,0,0,0,0,0,0,0,0,0,0,0,0,0,0,0,0,0,0,0,0,0,0,0,0,0,0,0,0,0,0,0,0,0,0,0,0,0,0,0,0,0,0,0,0,0,0,0,0,0,0,0,0,0,0,0,0,0,0,0,0,0,0,0,0,0,0,0,0,0,0,0,0,0,0,0,0,0,0,0,0,0,0,0,0,0,0,0,0,0,0,0,0,0,0,0,0,0,0,0,0,0,0],"id":13,"left_children":[1,3,5,7,9,11,13,15,17,19,21,23,25,27,29,31,33,35,37,39,-1,41,43,45,47,49,51,53,55,57,59,61,63,-1,65,-1,-1,-1,67,69,71,73,75,77,79,81,83,85,87,89,91,-1,93,95,97,99,-1,101,103,105,107,-1,-1,-1,-1,-1,-1,-1,-1,-1,-1,-1,-1,-1,-1,-1,-1,-1,-1,-1,-1,-1,-1,-1,-1,-1,-1,-1,-1,-1,-1,-1,-1,-1,-1,-1,-1,-1,-1,-1,-1,-1,-1,-1,-1,-1,-1,-1,-1],"loss_changes":[2.43964E0,3.10909E0,1.6332204E0,3.5283337E0,2.4047794E0,3.4296274E0,3.045608E0,2.4339008E0,2.5343332E0,2.3047264E0,3.480968E0,1.6729308E0,4.2711926E0,1.8260431E0,3.325715E0,2.366549E0,3.8053472E0,4.1011095E-1,3.2575788E0,2.3113327E0,0E0,4.151499E0,5.137072E0,2.7442558E0,2.4360316E0,2.1308074E0,1.5052725E0,6.973219E-1,2.7138212E0,1.8197482E0,1.1632624E0,1.9790826E0,3.9692392E0,0E0,2.0123398E0,0E0,0E0,0E0,1.2806698E0,1.8383048E0,1.5719123E0,3.6160784E0,2.9897914E0,1.3034048E0,2.8967223E0,6.0341377E0,5.624872E0,3.0250323E0,3.7376616E0,2.3431325E0,1.2392035E0,0E0,1.4019434E0,1.6123623E0,4.8426914E-1,1.174337E0,0E0,1.3670473E0,9.214687E-2,1.9004996E0,1.7364446E0,0E0,0E0,0E0,0E0,0E0,0E0,0E0,0E0,0E0,0E0,0E0,0E0,0E0,0E0,0E0,0E0,0E0,0E0,0E0,0E0,0E0,0E0,0E0,0E0,0E0,0E0,0E0,0E0,0E0,0E0,0E0,0E0,0E0,0E0,0E0,0E0,0E0,0E0,0E0,0E0,0E0,0E0,0E0,0E0,0E0,0E0,0E0,0E0],"parents":[2147483647,0,0,1,1,2,2,3,3,4,4,5,5,6,6,7,7,8,8,9,9,10,10,11,11,12,12,13,13,14,14,15,15,16,16,17,17,18,18,19,19,21,21,22,22,23,23,24,24,25,25,26,26,27,27,28,28,29,29,30,30,31,31,32,32,34,34,38,38,39,39,40,40,41,41,42,42,43,43,44,44,45,45,46,46,47,47,48,48,49,49,50,50,52,52,53,53,54,54,55,55,57,57,58,58,59,59,60,60],"right_children":[2,4,6,8,10,12,14,16,18,20,22,24,26,28,30,32,34,36,38,40,-1,42,44,46,48,50,52,54,56,58,60,62,64,-1,66,-1,-1,-1,68,70,72,74,76,78,80,82,84,86,88,90,92,-1,94,96,98,100,-1,102,104,106,108,-1,-1,-1,-1,-1,-1,-1,-1,-1,-1,-1,-1,-1,-1,-1,-1,-1,-1,-1,-1,-1,-1,-1,-1,-1,-1,-1,-1,-1,-1,-1,-1,-1,-1,-1,-1,-1,-1,-1,-1,-1,-1,-1,-1,-1,-1,-1,-1],"split_conditions":[1E0,1E0,5E1,9.6E1,1E0,1E0,1.0365E2,4.2139E3,1E0,9.77E1,1E0,1E0,4.0422E3,1E0,1E0,1E0,5.4E1,6.2E1,1E0,9.065E1,2.9299814E-1,1E0,1.55395E3,1E0,3.4345E2,2.62555E3,4.2139E3,1E0,1E0,1E0,7E1,6E1,1E0,4.168971E-1,1E0,-3.1471455E-1,-5.4967243E-2,-2.8842714E-1,1.031E2,7.365E1,9.185E1,2.6E1,1E0,1E0,1.71455E3,3.4E1,3.0672E3,2.6485E2,8.325E1,3.1E1,3.1669E3,3.6569843E-1,5.0402E3,4.74785E3,3.3638E3,1E0,-1.8369079E-1,5.931E3,6.6E1,1E0,1.0845E2,1.3642202E-3,-2.2529404E-1,-1.6744812E-1,7.923634E-2,-2.1662346E-1,1.424715E-1,-3.1996284E-2,2.2485475E-1,-2.0759469E-2,3.5866186E-2,-2.945397E-1,-4.3403078E-2,2.364022E-1,-2.3186807E-2,2.3859214E-2,-1.21174365E-1,2.4248727E-1,6.4518474E-2,-2.4118619E-1,5.5234656E-2,-1.0503863E-1,3.5349542E-1,3.7389645E-1,-1.5528646E-1,-1.49071E-2,3.8330257E-1,-1.5467294E-1,4.3630794E-2,-8.739737E-2,1.3145526E-1,-3.3206064E-1,-8.063054E-2,-7.059991E-2,2.2499318E-1,-2.27275E-1,-1.1670503E-3,-2.2812054E-2,-2.617397E-1,-3.0148573E-2,3.2467592E-1,-1.4513135E-1,9.8562874E-2,1.2476705E-1,3.6428756E-1,6.734877E-2,-1.8039781E-1,-1.8898697E-1,1.3220349E-1],"split_indices":[20,6,4,7,24,0,7,8,2,7,10,6,8,1,2,16,4,4,10,7,0,5,8,22,8,8,8,22,11,27,4,4,18,0,25,0,0,0,7,7,7,4,0,16,8,4,8,8,7,4,8,0,8,8,8,10,0,8,4,6,7,0,0,0,0,0,0,0,0,0,0,0,0,0,0,0,0,0,0,0,0,0,0,0,0,0,0,0,0,0,0,0,0,0,0,0,0,0,0,0,0,0,0,0,0,0,0,0,0],"split_type":[0,0,0,0,0,0,0,0,0,0,0,0,0,0,0,0,0,0,0,0,0,0,0,0,0,0,0,0,0,0,0,0,0,0,0,0,0,0,0,0,0,0,0,0,0,0,0,0,0,0,0,0,0,0,0,0,0,0,0,0,0,0,0,0,0,0,0,0,0,0,0,0,0,0,0,0,0,0,0,0,0,0,0,0,0,0,0,0,0,0,0,0,0,0,0,0,0,0,0,0,0,0,0,0,0,0,0,0,0],"sum_hessian":[7.407629E2,5.68105E2,1.7265791E2,1.8172955E2,3.863754E2,1.1695601E2,5.5701904E1,1.6725632E2,1.4473226E1,2.1932654E2,1.6704887E2,5.9549442E1,5.7406567E1,2.5606592E1,3.0095312E1,1.616203E2,5.6360183E0,6.8176613E0,7.655565E0,2.1793777E2,1.3887615E0,6.7694145E1,9.935473E1,1.906594E1,4.04835E1,5.1900608E1,5.5059595E0,2.1050606E1,4.5559874E0,1.0874072E1,1.922124E1,1.3418983E2,2.7430475E1,1.9717094E0,3.6643088E0,5.69683E0,1.1208314E0,2.065285E0,5.5902796E0,2.0869728E2,9.240491E0,1.80635E1,4.9630646E1,2.3379108E1,7.5975624E1,1.1702518E1,7.3634233E0,5.7867417E0,3.469676E1,4.3879524E1,8.021081E0,1.2506342E0,4.2553253E0,1.0375197E1,1.0675408E1,2.3770912E0,2.178896E0,7.805421E0,3.0686514E0,1.4211242E1,5.0099974E0,1.3162926E2,2.5605726E0,1.996871E1,7.461766E0,1.6639105E0,2.0003982E0,3.4211297E0,2.1691499E0,1.19380104E2,8.9317184E1,2.8654523E0,6.3750386E0,9.201228E0,8.862272E0,2.4769232E1,2.4861416E1,1.7627804E1,5.751304E0,2.1131015E0,7.3862526E1,9.248187E0,2.454331E0,5.500395E0,1.8630283E0,3.683431E0,2.103311E0,1.2671537E1,2.2025223E1,3.983675E1,4.0427747E0,3.9703631E0,4.050718E0,2.909415E0,1.3459101E0,4.6332927E0,5.7419047E0,1.0399511E0,9.635457E0,1.0755985E0,1.3014928E0,2.0009885E0,5.8044324E0,1.983421E0,1.0852305E0,3.0364702E0,1.1174771E1,1.2413877E0,3.7686098E0],"tree_param":{"num_deleted":"0","num_feature":"30","num_nodes":"109","size_leaf_vector":"1"}},{"base_weights":[-1.0752062E-2,-2.0240224E-3,-3.90494E-1,1.1172379E-1,-1.9046599E-2,-2.4106875E-1,-2.4313119E-1,1.438919E-1,-3.6560094E-1,7.645617E-3,-1.5777765E-1,-6.853221E-1,-6.080177E-2,5.7575475E-2,3.1758606E-1,-2.3206621E-1,3.2515295E-2,-2.2654298E-1,1.14821335E-2,-2.6996812E-1,1.9316043E-1,-2.3686075E-1,-6.350887E-2,2.9932427E-1,-4.1098094E-1,1.18402615E-1,-6.2876856E-1,8.475935E-1,1.4620483E-1,1.2220299E-1,-9.60142E-2,6.483237E-1,6.065356E-3,-3.222225E-1,1.7364304E-1,4.255329E-1,-2.7869996E-1,-1.3497981E-1,7.312012E-1,4.081229E-2,-6.0231763E-1,2.3150526E-2,2.2340822E-1,8.327886E-3,-2.7302366E-1,2.9201782E-1,3.6839247E-2,-8.441227E-2,1.0771302E-1,-9.7464405E-2,3.685119E-1,-1.2424391E-2,1.5081865E-2,-6.117815E-2,-2.26393E-1,1.4553016E-1,-1.3586816E-1,-1.5291755E-2,1.6398606E-1,3.5259166E-1,-5.9538145E-2,-1.967005E-2,-2.2541171E-1],"categories":[],"categories_nodes":[],"categories_segments":[],"categories_sizes":[],"default_left":[0,0,0,0,0,0,0,0,0,0,0,0,0,0,0,0,0,0,0,0,0,0,0,0,0,0,0,0,0,0,0,0,0,0,0,0,0,0,0,0,0,0,0,0,0,0,0,0,0,0,0,0,0,0,0,0,0,0,0,0,0,0,0],"id":14,"left_children":[1,3,5,7,9,-1,11,13,15,17,19,21,23,25,27,-1,29,-1,31,33,35,-1,-1,37,39,41,43,45,47,-1,-1,49,51,53,55,57,-1,-1,59,-1,61,-1,-1,-1,-1,-1,-1,-1,-1,-1,-1,-1,-1,-1,-1,-1,-1,-1,-1,-1,-1,-1,-1],"loss_changes":[2.4320726E0,1.3934249E0,8.081913E-1,1.491017E0,2.3187969E0,0E0,1.05365E0,1.3082967E0,1.0316393E0,1.5474821E0,4.0300255E0,2.382207E-2,1.4744623E0,2.5931208E0,2.52407E0,0E0,6.716598E-1,0E0,1.8043007E0,1.8402967E0,6.9293556E0,0E0,0E0,2.2257993E0,6.947239E-1,1.3954258E0,9.6161723E-1,5.1094913E-1,2.2157564E0,0E0,0E0,2.8893867E0,1.0951649E0,3.3866453E0,1.9294206E0,1.2652063E0,0E0,0E0,1.9257586E0,0E0,3.1250012E-1,0E0,0E0,0E0,0E0,0E0,0E0,0E0,0E0,0E0,0E0,0E0,0E0,0E0,0E0,0E0,0E0,0E0,0E0,0E0,0E0,0E0,0E0],"parents":[2147483647,0,0,1,1,2,2,3,3,4,4,6,6,7,7,8,8,9,9,10,10,11,11,12,12,13,13,14,14,16,16,18,18,19,19,20,20,23,23,24,24,25,25,26,26,27,27,28,28,31,31,32,32,33,33,34,34,35,35,38,38,40,40],"right_children":[2,4,6,8,10,-1,12,14,16,18,20,22,24,26,28,-1,30,-1,32,34,36,-1,-1,38,40,42,44,46,48,-1,-1,50,52,54,56,58,-1,-1,60,-1,62,-1,-1,-1,-1,-1,-1,-1,-1,-1,-1,-1,-1,-1,-1,-1,-1,-1,-1,-1,-1,-1,-1],"split_conditions":[7.1E1,2E0,1E0,1E0,1E0,-2.4106875E-1,1E0,5.545E1,4.43E1,4.99E1,1E0,1.0705E2,1E0,1E0,6.995E1,-2.3206621E-1,4.95E1,-2.2654298E-1,7.905E1,1E0,4.9E1,-2.3686075E-1,-6.350887E-2,1E0,1E0,1E0,4.885E1,1E0,7.44E1,1.2220299E-1,-9.60142E-2,2.055E1,1E0,6.555E1,2.3E1,4.202E2,-2.7869996E-1,-1.3497981E-1,1E0,4.081229E-2,1E0,2.3150526E-2,2.2340822E-1,8.327886E-3,-2.7302366E-1,2.9201782E-1,3.6839247E-2,-8.441227E-2,1.0771302E-1,-9.7464405E-2,3.685119E-1,-1.2424391E-2,1.5081865E-2,-6.117815E-2,-2.26393E-1,1.4553016E-1,-1.3586816E-1,-1.5291755E-2,1.6398606E-1,3.5259166E-1,-5.9538145E-2,-1.967005E-2,-2.2541171E-1],"split_indices":[4,4,22,27,29,0,2,7,7,8,22,7,14,14,7,0,7,0,8,1,4,0,0,26,26,24,7,24,7,0,0,7,10,7,4,8,0,0,20,0,6,0,0,0,0,0,0,0,0,0,0,0,0,0,0,0,0,0,0,0,0,0,0],"split_type":[0,0,0,0,0,0,0,0,0,0,0,0,0,0,0,0,0,0,0,0,0,0,0,0,0,0,0,0,0,0,0,0,0,0,0,0,0,0,0,0,0,0,0,0,0,0,0,0,0,0,0,0,0,0,0,0,0,0,0,0,0,0,0],"sum_hessian":[7.3302765E2,7.175409E2,1.5486728E1,9.2679184E1,6.248617E2,2.9012797E0,1.2585448E1,8.748209E1,5.197094E0,5.248283E2,1.0003343E2,2.8689294E0,9.716519E0,5.9329884E1,2.8152208E1,2.101072E0,3.096022E0,1.6464443E0,5.231818E2,7.597569E1,2.4057741E1,1.8048077E0,1.0641218E0,4.861822E0,4.8546968E0,5.5259968E1,4.0699186E0,5.9147635E0,2.2237446E1,1.4253151E0,1.6707067E0,3.4114816E0,5.197704E2,6.8214165E1,7.7615285E0,2.0444887E1,3.6128542E0,1.7624191E0,3.099403E0,1.332926E0,3.521771E0,5.2900295E1,2.3596702E0,1.4911528E0,2.5787656E0,4.747735E0,1.1670285E0,7.2834506E0,1.4953994E1,1.4382674E0,1.9732144E0,2.5063995E2,2.691304E2,5.4717068E1,1.3497097E1,5.335128E0,2.4264002E0,4.259977E0,1.618491E1,1.9186327E0,1.1807702E0,1.0783784E0,2.4433925E0],"tree_param":{"num_deleted":"0","num_feature":"30","num_nodes":"63","size_leaf_vector":"1"}},{"base_weights":[-9.261967E-3,-1.9894915E-3,-3.467461E-1,-3.8403055E-1,2.1600272E-3,-2.24524E-1,-2.1674787E-1,-5.3215086E-1,7.086434E-2,2.3147121E-2,-6.9159076E-2,-6.145589E-1,-6.028458E-2,-7.10685E-1,-1.2585816E-3,1.9070567E-1,4.2222585E-3,-8.663206E-2,5.1970845E-1,-2.1487716E-1,-5.3262662E-2,2.1776006E-1,-3.584711E-1,-2.5188458E-1,-4.5961864E-2,2.8717756E-1,-2.6078618E-1,-1.2392312E-1,3.0302392E-2,-3.859252E-2,-2.1682638E-1,1.9324239E-1,1.8640362E-2,-1.1608549E-1,5.282627E-1,-5.673903E-1,4.1230503E-2,6.028824E-3,1.6797806E-1,1.0340188E-1,-2.4360965E-1,2.1290163E-2,-9.064505E-2,1.16774626E-1,1.8153741E-3,2.5724085E-2,-5.0750483E-2,-8.8316314E-2,9.032473E-2,2.4665384E-1,-5.1213246E-2,-2.0933132E-1,-3.225718E-2],"categories":[],"categories_nodes":[],"categories_segments":[],"categories_sizes":[],"default_left":[0,0,0,0,0,0,0,0,0,0,0,0,0,0,0,0,0,0,0,0,0,0,0,0,0,0,0,0,0,0,0,0,0,0,0,0,0,0,0,0,0,0,0,0,0,0,0,0,0,0,0,0,0],"id":15,"left_children":[1,3,5,7,9,-1,11,13,-1,15,17,19,21,23,-1,25,27,29,31,-1,-1,33,35,-1,-1,37,39,41,43,45,47,-1,-1,-1,49,51,-1,-1,-1,-1,-1,-1,-1,-1,-1,-1,-1,-1,-1,-1,-1,-1,-1],"loss_changes":[1.7863747E0,1.1323582E0,6.394886E-1,8.3079803E-1,1.059966E0,0E0,7.725549E-1,6.0995805E-1,0E0,1.7339848E0,1.7017866E0,3.1185865E-2,9.439811E-1,2.2021866E-1,0E0,2.4920971E0,1.6499805E0,9.750576E-1,2.3230505E-1,0E0,0E0,1.3360195E0,6.3925284E-1,0E0,0E0,3.3543696E0,3.715736E0,2.9215708E0,3.5673864E0,1.8990211E0,1.782322E0,0E0,0E0,0E0,1.045289E0,1.6520262E-1,0E0,0E0,0E0,0E0,0E0,0E0,0E0,0E0,0E0,0E0,0E0,0E0,0E0,0E0,0E0,0E0,0E0],"parents":[2147483647,0,0,1,1,2,2,3,3,4,4,6,6,7,7,9,9,10,10,11,11,12,12,13,13,15,15,16,16,17,17,18,18,21,21,22,22,25,25,26,26,27,27,28,28,29,29,30,30,34,34,35,35],"right_children":[2,4,6,8,10,-1,12,14,-1,16,18,20,22,24,-1,26,28,30,32,-1,-1,34,36,-1,-1,38,40,42,44,46,48,-1,-1,-1,50,52,-1,-1,-1,-1,-1,-1,-1,-1,-1,-1,-1,-1,-1,-1,-1,-1,-1],"split_conditions":[7.1E1,1.935E1,1E0,1E0,1E0,-2.24524E-1,1E0,1E0,7.086434E-2,1E0,7.5119E3,1E0,1E0,1E0,-1.2585816E-3,1E0,4.5E1,5E1,7.8812E3,-2.1487716E-1,-5.3262662E-2,1E0,1E0,-2.5188458E-1,-4.5961864E-2,1E0,1E0,2.025E1,4.98E1,1E0,6.9E1,1.9324239E-1,1.8640362E-2,-1.1608549E-1,1E0,7.73265E3,4.1230503E-2,6.028824E-3,1.6797806E-1,1.0340188E-1,-2.4360965E-1,2.1290163E-2,-9.064505E-2,1.16774626E-1,1.8153741E-3,2.5724085E-2,-5.0750483E-2,-8.8316314E-2,9.032473E-2,2.4665384E-1,-5.1213246E-2,-2.0933132E-1,-3.225718E-2],"split_indices":[4,7,22,28,20,0,2,3,0,5,8,28,14,6,0,27,7,4,8,0,0,26,1,0,0,0,0,7,7,0,4,0,0,0,20,8,0,0,0,0,0,0,0,0,0,0,0,0,0,0,0,0,0],"split_type":[0,0,0,0,0,0,0,0,0,0,0,0,0,0,0,0,0,0,0,0,0,0,0,0,0,0,0,0,0,0,0,0,0,0,0,0,0,0,0,0,0,0,0,0,0,0,0,0,0,0,0,0,0],"sum_hessian":[7.2712286E2,7.127692E2,1.4353633E1,6.6748605E0,7.0609436E2,2.3464592E0,1.2007174E1,5.502777E0,1.1720835E0,5.4607587E2,1.6001848E2,2.562966E0,9.444207E0,3.8535485E0,1.6492285E0,5.449616E1,4.915797E2,1.562355E2,3.7829645E0,1.5607855E0,1.0021806E0,5.026736E0,4.417472E0,2.7186928E0,1.1348557E0,4.520169E1,9.29447E0,8.249362E1,4.090861E2,1.15072205E2,4.1163307E1,2.6536098E0,1.1293547E0,1.6218777E0,3.404858E0,3.0066555E0,1.4108162E0,2.3380615E1,2.1821075E1,4.6080127E0,4.6864567E0,3.9692215E1,4.280141E1,2.4937035E1,3.8414905E2,5.911953E1,5.5952675E1,3.6177063E1,4.9862447E0,2.272859E0,1.1319989E0,1.9394509E0,1.0672046E0],"tree_param":{"num_deleted":"0","num_feature":"30","num_nodes":"53","size_leaf_vector":"1"}},{"base_weights":[-8.128077E-3,2.6765612E-3,-1.8456341E-1,2.0016754E-2,-6.341982E-2,-2.1256994E-1,-1.3658817E-1,1.4258859E-2,4.4485307E-1,-2.8299117E-2,-3.264413E-1,8.274045E-2,-2.7959034E-1,1.9569857E-2,-2.9227123E-1,1.5036154E-1,2.7524015E-1,-5.301695E-2,7.293815E-1,-2.3226331E-1,-8.794578E-2,2.1639282E-1,-2.0898591E-1,-6.4993316E-1,-1.8073903E-1,2.4801968E-2,-6.043434E-1,4.089029E-1,-5.5332843E-2,-2.53072E-2,-6.956106E-1,3.2201915E-3,3.6581138E-1,1.2973964E-1,-6.153647E-1,-3.3346164E-1,4.108395E-1,-2.3492223E-1,-2.8338324E-2,6.486985E-2,-3.550119E-1,4.9454356E-3,2.5818166E-1,-3.664379E-2,-2.1408351E-1,-2.7857685E-2,2.2813883E-1,-5.769233E-2,1.1401303E-2,-2.7823472E-1,-3.0126901E-2,-1.1364335E-1,8.588283E-2,-3.8545303E-2,-2.2595622E-1,9.611692E-2,-2.0821303E-1,2.1323214E-1,-3.0845879E-2,-3.151276E-2,1.9800444E-1,-8.140975E-3,-1.9042945E-1],"categories":[],"categories_nodes":[],"categories_segments":[],"categories_sizes":[],"default_left":[0,0,0,0,0,0,0,0,0,0,0,0,0,0,0,0,0,0,0,0,0,0,0,0,0,0,0,0,0,0,0,0,0,0,0,0,0,0,0,0,0,0,0,0,0,0,0,0,0,0,0,0,0,0,0,0,0,0,0,0,0,0,0],"id":16,"left_children":[1,3,5,7,9,-1,11,13,15,17,19,21,23,25,-1,27,-1,29,31,-1,33,35,-1,37,39,41,43,45,-1,47,49,-1,-1,51,53,55,57,-1,-1,59,61,-1,-1,-1,-1,-1,-1,-1,-1,-1,-1,-1,-1,-1,-1,-1,-1,-1,-1,-1,-1,-1,-1],"loss_changes":[1.3807409E0,7.843503E-1,9.539021E-1,1.3194969E0,1.3046551E0,0E0,1.2629058E0,2.8319283E0,8.661829E-1,2.4091868E0,1.7110628E0,1.8561313E0,7.668439E-1,1.7578763E0,0E0,5.637026E-1,0E0,2.1815934E0,1.4188669E0,0E0,1.4573941E0,1.7128081E0,0E0,2.7391803E-1,8.984229E-1,3.6731193E0,1.48857E-1,6.8692565E-1,0E0,1.2701561E0,6.061771E-1,0E0,0E0,8.502931E-1,1.5013433E-1,1.2603025E0,1.819578E0,0E0,0E0,1.0132096E0,1.0942562E0,0E0,0E0,0E0,0E0,0E0,0E0,0E0,0E0,0E0,0E0,0E0,0E0,0E0,0E0,0E0,0E0,0E0,0E0,0E0,0E0,0E0,0E0],"parents":[2147483647,0,0,1,1,2,2,3,3,4,4,6,6,7,7,8,8,9,9,10,10,11,11,12,12,13,13,15,15,17,17,18,18,20,20,21,21,23,23,24,24,25,25,26,26,27,27,29,29,30,30,33,33,34,34,35,35,36,36,39,39,40,40],"right_children":[2,4,6,8,10,-1,12,14,16,18,20,22,24,26,-1,28,-1,30,32,-1,34,36,-1,38,40,42,44,46,-1,48,50,-1,-1,52,54,56,58,-1,-1,60,62,-1,-1,-1,-1,-1,-1,-1,-1,-1,-1,-1,-1,-1,-1,-1,-1,-1,-1,-1,-1,-1,-1],"split_conditions":[1E0,1E0,6.89E2,1.0915E2,6E1,-2.1256994E-1,1E0,1.0795E2,6.5E1,5.8E1,6.5E1,1E0,1E0,7E1,-2.9227123E-1,4.8E1,2.7524015E-1,5.5E1,9.965E1,-2.3226331E-1,1E0,2.445E1,-2.0898591E-1,6.31435E3,6.44185E3,6.85905E3,9.47E1,3.1E1,-5.5332843E-2,5.8345E2,1E0,3.2201915E-3,3.6581138E-1,1E0,6.0495E3,1.98E1,1E0,-2.3492223E-1,-2.8338324E-2,1.0915E2,1E0,4.9454356E-3,2.5818166E-1,-3.664379E-2,-2.1408351E-1,-2.7857685E-2,2.2813883E-1,-5.769233E-2,1.1401303E-2,-2.7823472E-1,-3.0126901E-2,-1.1364335E-1,8.588283E-2,-3.8545303E-2,-2.2595622E-1,9.611692E-2,-2.0821303E-1,2.1323214E-1,-3.0845879E-2,-3.151276E-2,1.9800444E-1,-8.140975E-3,-1.9042945E-1],"split_indices":[26,14,8,7,4,0,16,7,4,4,4,1,22,4,0,4,0,4,7,0,28,7,0,8,8,8,7,4,0,8,0,0,0,24,8,7,3,0,0,7,14,0,0,0,0,0,0,0,0,0,0,0,0,0,0,0,0,0,0,0,0,0,0],"split_type":[0,0,0,0,0,0,0,0,0,0,0,0,0,0,0,0,0,0,0,0,0,0,0,0,0,0,0,0,0,0,0,0,0,0,0,0,0,0,0,0,0,0,0,0,0,0,0,0,0,0,0,0,0,0,0,0,0,0,0,0,0,0,0],"sum_hessian":[7.2303735E2,6.822427E2,4.0794697E1,5.4100793E2,1.4123471E2,2.2667723E0,3.8527927E1,5.3479333E2,6.2146034E0,1.2557459E2,1.5660116E1,1.5372248E1,2.3155678E1,5.3291034E2,1.8830215E0,4.6409316E0,1.5736716E0,1.2250803E2,3.0665555E0,4.661685E0,1.0998431E1,1.3738568E1,1.6336797E0,3.7039833E0,1.9451694E1,5.294308E2,3.4795353E0,2.4938338E0,2.1470978E0,1.1844008E2,4.0679584E0,1.6574899E0,1.4090655E0,8.318915E0,2.6795158E0,3.402392E0,1.0336177E1,2.6573088E0,1.0466745E0,8.334027E0,1.1117667E1,5.2522394E2,4.2068443E0,1.0340698E0,2.4454656E0,1.3306034E0,1.1632304E0,3.1998442E1,8.6441635E1,2.5258417E0,1.5421169E0,1.6237551E0,6.6951604E0,1.0174515E0,1.6620643E0,1.2490056E0,2.1533864E0,6.283429E0,4.0527472E0,7.123723E0,1.210304E0,5.6236506E0,5.4940166E0],"tree_param":{"num_deleted":"0","num_feature":"30","num_nodes":"63","size_leaf_vector":"1"}},{"base_weights":[-8.111962E-3,-2.6342971E-3,-2.8816727E-1,-1.8690328E-1,-6.766829E-4,-2.0331098E-1,-1.7332931E-1,4.7649916E-2,-2.190163E-2,2.1558857E-1,-2.9941362E-1,1.2769778E-2,3.642976E-1,-4.2968264E-1,-1.1679814E-2,1.8194273E-1,-8.047369E-2,-1.8775271E-1,-5.4980822E-2,4.9050074E-2,-1.3439672E-1,1.5597719E-1,3.2783163E-1,-1.0248053E-2,-4.1153342E-1,-4.3304202E-1,-2.8611408E-3,2.5037146E-1,-1.4326611E-1,1.7612821E-3,1.105938E-1,2.734731E-2,-8.9885004E-2,-7.946034E-2,1.358326E-1,-1.09158345E-1,2.5406697E-1,3.7443087E-2,-2.5778198E-1,5.7850458E-2,-6.090219E-3,-6.762386E-2,1.4963269E-1],"categories":[],"categories_nodes":[],"categories_segments":[],"categories_sizes":[],"default_left":[0,0,0,0,0,0,0,0,0,0,0,0,0,0,0,0,0,0,0,0,0,0,0,0,0,0,0,0,0,0,0,0,0,0,0,0,0,0,0,0,0,0,0],"id":17,"left_children":[1,3,5,-1,7,-1,9,11,13,15,17,19,21,23,25,-1,-1,-1,27,29,31,33,-1,35,-1,37,39,41,-1,-1,-1,-1,-1,-1,-1,-1,-1,-1,-1,-1,-1,-1,-1],"loss_changes":[1.1058785E0,8.6008704E-1,5.011895E-1,0E0,7.2656864E-1,0E0,6.541947E-1,2.382868E0,2.0464225E0,8.2940257E-1,7.2354156E-1,1.0517794E0,3.0790856E0,4.730573E0,1.7866452E0,0E0,0E0,0E0,9.619229E-1,2.1750927E0,1.4800191E0,2.3454587E0,0E0,3.1317258E0,0E0,2.450958E0,1.6157844E0,6.378629E-1,0E0,0E0,0E0,0E0,0E0,0E0,0E0,0E0,0E0,0E0,0E0,0E0,0E0,0E0,0E0],"parents":[2147483647,0,0,1,1,2,2,4,4,6,6,7,7,8,8,9,9,10,10,11,11,12,12,13,13,14,14,18,18,19,19,20,20,21,21,23,23,25,25,26,26,27,27],"right_children":[2,4,6,-1,8,-1,10,12,14,16,18,20,22,24,26,-1,-1,-1,28,30,32,34,-1,36,-1,38,40,42,-1,-1,-1,-1,-1,-1,-1,-1,-1,-1,-1,-1,-1,-1,-1],"split_conditions":[7.1E1,1.9E1,1E0,-1.8690328E-1,3.561E2,-2.0331098E-1,6.60555E3,1E0,4.026E2,1E0,7.5119E3,1E0,5E0,1E0,2.075E1,1.8194273E-1,-8.047369E-2,-1.8775271E-1,1.0955E2,2.6485E2,8.025E1,1E0,3.2783163E-1,8.475E1,-4.1153342E-1,1.98E1,4.885E1,1E0,-1.4326611E-1,1.7612821E-3,1.105938E-1,2.734731E-2,-8.9885004E-2,-7.946034E-2,1.358326E-1,-1.09158345E-1,2.5406697E-1,3.7443087E-2,-2.5778198E-1,5.7850458E-2,-6.090219E-3,-6.762386E-2,1.4963269E-1],"split_indices":[4,7,22,0,8,0,8,18,8,0,8,3,4,29,7,0,0,0,7,8,8,6,0,7,0,7,7,0,0,0,0,0,0,0,0,0,0,0,0,0,0,0,0],"split_type":[0,0,0,0,0,0,0,0,0,0,0,0,0,0,0,0,0,0,0,0,0,0,0,0,0,0,0,0,0,0,0,0,0,0,0,0,0,0,0,0,0,0,0],"sum_hessian":[7.203834E2,7.0755365E2,1.2829794E1,1.2277385E0,7.0632587E2,1.8051729E0,1.1024621E1,2.1516855E2,4.9115735E2,2.525285E0,8.499336E0,1.9475568E2,2.0412868E1,1.1007245E1,4.8015012E2,1.2566032E0,1.2686818E0,2.9711356E0,5.5282006E0,1.5677367E2,3.7982006E1,1.6817667E1,3.5952005E0,8.315805E0,2.6914399E0,8.856887E0,4.712932E2,3.4457788E0,2.0824218E0,1.3901091E2,1.7762754E1,1.6248371E1,2.1733633E1,6.9998336E0,9.817834E0,6.294497E0,2.0213082E0,4.1424356E0,4.7144513E0,3.7740128E1,4.335531E2,1.2136855E0,2.2320933E0],"tree_param":{"num_deleted":"0","num_feature":"30","num_nodes":"43","size_leaf_vector":"1"}},{"base_weights":[-6.978899E-3,1.0258385E-3,-1.4443E-1,-1.8902443E-3,3.021508E-1,-4.6555674E-1,-7.531075E-2,1.8493248E-3,-5.645768E-1,-7.6571345E-2,6.0197675E-1,-2.3375654E-1,1.3446907E-2,1.17157616E-1,-1.9802871E-1,4.192028E-3,-2.1994652E-1,-2.2608192E-1,-3.5581242E-2,2.6816222E-1,4.8435982E-2,1.5465139E-1,-1.8024611E-1,2.359486E-1,-1.8283099E-1,-3.433055E-1,1.0365823E-1,-2.3117147E-3,2.0021492E-1,-1.5572917E-1,4.1365647E-1,-6.1037165E-1,1.1876609E-1,-3.011184E-1,5.235264E-1,2.9173153E-3,-6.426896E-2,2.5979772E-1,-1.0610045E-2,-1.9247283E-1,1.0359391E-1,1.8167289E-1,-6.9757816E-3,6.246956E-2,-2.5371614E-1,1.9935302E-1,-1.053867E-1,8.211358E-2,-2.1351455E-1,2.3161419E-1,-2.5810592E-2],"categories":[],"categories_nodes":[],"categories_segments":[],"categories_sizes":[],"default_left":[0,0,0,0,0,0,0,0,0,0,0,0,0,0,0,0,0,0,0,0,0,0,0,0,0,0,0,0,0,0,0,0,0,0,0,0,0,0,0,0,0,0,0,0,0,0,0,0,0,0,0],"id":18,"left_children":[1,3,5,7,9,11,13,15,17,-1,19,-1,21,23,25,27,-1,-1,-1,-1,-1,-1,-1,29,-1,31,33,35,37,39,41,43,45,47,49,-1,-1,-1,-1,-1,-1,-1,-1,-1,-1,-1,-1,-1,-1,-1,-1],"loss_changes":[7.908189E-1,5.9774196E-1,8.428875E-1,1.4204117E0,1.2447375E0,1.0339639E0,8.201532E-1,1.1586077E0,2.8631938E-1,0E0,4.398533E-1,0E0,1.4442353E0,1.331942E0,9.549232E-1,8.54563E-1,0E0,0E0,0E0,0E0,0E0,0E0,0E0,9.3810314E-1,0E0,1.8482776E0,1.4468899E0,1.6585351E0,3.4067712E0,1.3520541E0,7.6103806E-1,1.9643893E0,1.800282E0,1.2562538E0,6.8581426E-1,0E0,0E0,0E0,0E0,0E0,0E0,0E0,0E0,0E0,0E0,0E0,0E0,0E0,0E0,0E0,0E0],"parents":[2147483647,0,0,1,1,2,2,3,3,4,4,5,5,6,6,7,7,8,8,10,10,12,12,13,13,14,14,15,15,23,23,25,25,26,26,27,27,28,28,29,29,30,30,31,31,32,32,33,33,34,34],"right_children":[2,4,6,8,10,12,14,16,18,-1,20,-1,22,24,26,28,-1,-1,-1,-1,-1,-1,-1,30,-1,32,34,36,38,40,42,44,46,48,50,-1,-1,-1,-1,-1,-1,-1,-1,-1,-1,-1,-1,-1,-1,-1,-1],"split_conditions":[1E0,7.4055E3,4.6E1,7E1,1.0915E2,1E0,1E0,7.3182E3,1E0,-7.6571345E-2,1.1105E2,-2.3375654E-1,1E0,1E0,1E0,6.1254E3,-2.1994652E-1,-2.2608192E-1,-3.5581242E-2,2.6816222E-1,4.8435982E-2,1.5465139E-1,-1.8024611E-1,4.525E1,-1.8283099E-1,1.0795E2,7E1,5.5E1,1.0075E2,1E0,1E0,4.52405E3,1.0995E2,5.3302E3,1.061E2,2.9173153E-3,-6.426896E-2,2.5979772E-1,-1.0610045E-2,-1.9247283E-1,1.0359391E-1,1.8167289E-1,-6.9757816E-3,6.246956E-2,-2.5371614E-1,1.9935302E-1,-1.053867E-1,8.211358E-2,-2.1351455E-1,2.3161419E-1,-2.5810592E-2],"split_indices":[26,8,4,4,7,10,16,8,1,0,7,0,20,1,3,8,0,0,0,0,0,0,0,7,0,7,4,4,7,0,3,8,7,8,7,0,0,0,0,0,0,0,0,0,0,0,0,0,0,0,0],"split_type":[0,0,0,0,0,0,0,0,0,0,0,0,0,0,0,0,0,0,0,0,0,0,0,0,0,0,0,0,0,0,0,0,0,0,0,0,0,0,0,0,0,0,0,0,0,0,0,0,0,0,0],"sum_hessian":[7.1762177E2,6.7906744E2,3.8554306E1,6.7353864E2,5.528801E0,5.8127613E0,3.2741543E1,6.7008203E2,3.4565976E0,1.985811E0,3.5429897E0,3.134038E0,2.6787236E0,1.2765578E1,1.9975964E1,6.689442E2,1.1378512E0,1.9431652E0,1.5134325E0,1.5119992E0,2.0309906E0,1.5624615E0,1.116262E0,1.1552179E1,1.2133996E0,1.3390056E1,6.5859084E0,6.484189E2,2.0525349E1,3.644089E0,7.90809E0,8.282199E0,5.1078568E0,3.4972181E0,3.08869E0,6.144733E2,3.3945503E1,4.665162E0,1.5860187E1,1.707698E0,1.936391E0,5.226301E0,2.681789E0,1.8751532E0,6.4070463E0,2.1722002E0,2.9356565E0,1.5960909E0,1.9011273E0,2.0047739E0,1.0839164E0],"tree_param":{"num_deleted":"0","num_feature":"30","num_nodes":"51","size_leaf_vector":"1"}},{"base_weights":[-6.385905E-3,-2.0873635E-3,-2.4354063E-1,-1.6504176E-2,7.0021205E-2,-1.8609817E-1,-1.4041053E-1,-4.879239E-3,-6.501205E-1,3.1149966E-1,-2.2904152E-2,-1.5678391E-1,-4.1857422E-3,1.05381E-3,-7.0294464E-1,-8.511854E-2,-1.1130499E0,4.8174763E-1,-1.3365257E-1,-6.053212E-1,3.809592E-2,2.047632E-1,-2.5470024E-1,-1.7265385E-2,1.921448E-1,-2.9959682E-1,-2.6850492E-1,-3.6814854E-1,1.6685659E-1,-1.05983615E-1,-3.6580324E-1,6.5465033E-1,5.8275327E-2,1.8784012E-1,-3.8401023E-1,-8.4052694E-1,2.4973061E-2,7.302507E-2,-2.4107741E-1,-7.863186E-2,3.9471197E-1,-4.6054563E-1,4.426214E-2,-7.283082E-4,-1.2766999E-1,1.7493713E-1,-2.947612E-2,2.194889E-2,-1.5506816E-1,7.3542087E-3,-2.1277118E-1,3.804643E-2,2.806067E-1,-2.0143607E-1,1.5241589E-1,-2.5566787E-1,7.050805E-2,-3.3783418E-1,-8.1664786E-2,4.5499563E-2,-4.3065675E-2,1.90992E-1,-5.4054838E-2,-2.511785E-2,-1.7754985E-1],"categories":[],"categories_nodes":[],"categories_segments":[],"categories_sizes":[],"default_left":[0,0,0,0,0,0,0,0,0,0,0,0,0,0,0,0,0,0,0,0,0,0,0,0,0,0,0,0,0,0,0,0,0,0,0,0,0,0,0,0,0,0,0,0,0,0,0,0,0,0,0,0,0,0,0,0,0,0,0,0,0,0,0,0,0],"id":19,"left_children":[1,3,5,7,9,-1,11,13,15,17,19,-1,21,23,25,27,29,31,33,35,37,39,41,43,45,-1,47,49,-1,-1,-1,51,53,-1,55,57,-1,59,-1,-1,61,63,-1,-1,-1,-1,-1,-1,-1,-1,-1,-1,-1,-1,-1,-1,-1,-1,-1,-1,-1,-1,-1,-1,-1],"loss_changes":[7.297089E-1,7.3360264E-1,4.0809166E-1,4.327732E0,2.6456738E0,0E0,5.860319E-1,2.3962455E0,2.6740146E0,2.5458837E0,3.0727875E0,0E0,5.409025E-1,2.0144906E0,3.5826826E-1,1.266604E0,3.243637E-2,1.7119598E0,2.1124063E0,1.3975923E0,2.3707652E0,6.040842E-1,4.5643362E-1,3.1806116E0,5.773016E0,0E0,3.2148516E-1,6.415822E-1,0E0,0E0,0E0,2.381606E0,2.975891E0,0E0,2.525394E0,6.997957E-1,0E0,1.3234503E0,0E0,0E0,7.283078E-1,1.1599201E-1,0E0,0E0,0E0,0E0,0E0,0E0,0E0,0E0,0E0,0E0,0E0,0E0,0E0,0E0,0E0,0E0,0E0,0E0,0E0,0E0,0E0,0E0,0E0],"parents":[2147483647,0,0,1,1,2,2,3,3,4,4,6,6,7,7,8,8,9,9,10,10,12,12,13,13,14,14,15,15,16,16,17,17,18,18,19,19,20,20,21,21,22,22,23,23,24,24,26,26,27,27,31,31,32,32,34,34,35,35,37,37,40,40,41,41],"right_children":[2,4,6,8,10,-1,12,14,16,18,20,-1,22,24,26,28,30,32,34,36,38,40,42,44,46,-1,48,50,-1,-1,-1,52,54,-1,56,58,-1,60,-1,-1,62,64,-1,-1,-1,-1,-1,-1,-1,-1,-1,-1,-1,-1,-1,-1,-1,-1,-1,-1,-1,-1,-1,-1,-1],"split_conditions":[7.1E1,4.0422E3,1E0,3.86145E3,4.8591E3,-1.8609817E-1,1E0,1.0705E2,1E0,1E0,4.99535E3,-1.5678391E-1,1E0,9.6E1,1.0915E2,4.0138E3,1E0,1E0,1E0,1E0,1E0,1E0,1E0,3.3161E3,1.0015E2,-2.9959682E-1,1E0,1E0,1.6685659E-1,-1.05983615E-1,-3.6580324E-1,1E0,4.3884E3,1.8784012E-1,1E0,5.2E1,2.4973061E-2,1E0,-2.4107741E-1,-7.863186E-2,1E0,1E0,4.426214E-2,-7.283082E-4,-1.2766999E-1,1.7493713E-1,-2.947612E-2,2.194889E-2,-1.5506816E-1,7.3542087E-3,-2.1277118E-1,3.804643E-2,2.806067E-1,-2.0143607E-1,1.5241589E-1,-2.5566787E-1,7.050805E-2,-3.3783418E-1,-8.1664786E-2,4.5499563E-2,-4.3065675E-2,1.90992E-1,-5.4054838E-2,-2.511785E-2,-1.7754985E-1],"split_indices":[4,8,22,8,8,0,2,7,28,25,8,0,14,7,7,8,22,20,6,1,29,26,1,8,7,0,1,24,0,0,0,28,8,0,20,4,0,1,0,0,20,3,0,0,0,0,0,0,0,0,0,0,0,0,0,0,0,0,0,0,0,0,0,0,0],"split_type":[0,0,0,0,0,0,0,0,0,0,0,0,0,0,0,0,0,0,0,0,0,0,0,0,0,0,0,0,0,0,0,0,0,0,0,0,0,0,0,0,0,0,0,0,0,0,0,0,0,0,0,0,0,0,0,0,0,0,0,0,0,0,0,0,0],"sum_hessian":[7.15307E2,7.035634E2,1.1743618E1,5.869787E2,1.16584724E2,1.4459246E0,1.0297693E1,5.7739294E2,9.585709E0,3.1743366E1,8.4841354E1,1.96057E0,8.337124E0,5.7351697E2,3.8759873E0,4.850085E0,4.735624E0,2.2902227E1,8.841139E0,7.1975203E0,7.764384E1,4.645248E0,3.6918757E0,5.241758E2,4.9341175E1,1.5334723E0,2.342515E0,3.660518E0,1.1895671E0,1.1118586E0,3.6237652E0,1.587471E1,7.027517E0,1.819217E0,7.0219216E0,5.2004223E0,1.9970977E0,7.542693E1,2.2168999E0,1.233525E0,3.411723E0,2.3462431E0,1.3456327E0,5.0676584E2,1.7409956E1,2.059927E1,2.8741903E1,1.2830641E0,1.0594509E0,2.1330607E0,1.5274572E0,6.01538E0,9.85933E0,2.491842E0,4.535675E0,3.7835171E0,3.2384045E0,2.8078933E0,2.392529E0,5.5554558E1,1.987238E1,2.3256412E0,1.0860819E0,1.0294E0,1.316843E0],"tree_param":{"num_deleted":"0","num_feature":"30","num_nodes":"65","size_leaf_vector":"1"}},{"base_weights":[-7.511396E-3,2.494074E-3,-1.0743238E-1,-3.1831956E-3,3.8613746E-1,-3.2026577E-1,-1.4501626E-2,8.829623E-4,-3.617002E-1,-1.392457E-1,8.558979E-1,-6.075591E-1,3.2042507E-2,-2.1669133E-1,3.6155738E-2,-5.6362962E-3,3.5153696E-1,2.5124294E-1,-3.2241803E-1,-2.3068993E-1,5.09151E-1,3.6634728E-1,-2.4372555E-2,2.0293588E-2,-7.3933184E-1,-1.485207E-1,2.2131076E-1,1.1923478E-1,-1.9978039E-1,1.6627298E-3,-3.4399027E-1,6.22828E-1,-3.0101264E-1,-1.4206006E-1,2.884669E-1,4.4061705E-2,1.9428168E-1,-8.6503744E-1,-2.0346444E-2,6.4131856E-1,-1.7527772E-1,3.8663667E-1,1.467457E-2,4.8485897E-2,-2.5007027E-1,-2.9265245E-3,6.1312903E-2,-2.2780837E-1,3.0793043E-2,3.182539E-1,3.7735038E-2,8.465031E-2,-1.8402444E-1,-2.8693402E-1,-8.109931E-2,1.2205052E-2,2.952029E-1,-1.629598E-1,5.222698E-2,